{"learner":{"attributes":{},"feature_names":[],"feature_types":[],"gradient_booster":{"model":{"cats":{"enc":[],"feature_segments":[],"sorted_idx":[]},"gbtree_model_param":{"num_parallel_tree":"1","num_trees":"300"},"iteration_indptr":[0,1,2,3,4,5,6,7,8,9,10,11,12,13,14,15,16,17,18,19,20,21,22,23,24,25,26,27,28,29,30,31,32,33,34,35,36,37,38,39,40,41,42,43,44,45,46,47,48,49,50,51,52,53,54,55,56,57,58,59,60,61,62,63,64,65,66,67,68,69,70,71,72,73,74,75,76,77,78,79,80,81,82,83,84,85,86,87,88,89,90,91,92,93,94,95,96,97,98,99,100,101,102,103,104,105,106,107,108,109,110,111,112,113,114,115,116,117,118,119,120,121,122,123,124,125,126,127,128,129,130,131,132,133,134,135,136,137,138,139,140,141,142,143,144,145,146,147,148,149,150,151,152,153,154,155,156,157,158,159,160,161,162,163,164,165,166,167,168,169,170,171,172,173,174,175,176,177,178,179,180,181,182,183,184,185,186,187,188,189,190,191,192,193,194,195,196,197,198,199,200,201,202,203,204,205,206,207,208,209,210,211,212,213,214,215,216,217,218,219,220,221,222,223,224,225,226,227,228,229,230,231,232,233,234,235,236,237,238,239,240,241,242,243,244,245,246,247,248,249,250,251,252,253,254,255,256,257,258,259,260,261,262,263,264,265,266,267,268,269,270,271,272,273,274,275,276,277,278,279,280,281,282,283,284,285,286,287,288,289,290,291,292,293,294,295,296,297,298,299,300],"tree_info":[0,0,0,0,0,0,0,0,0,0,0,0,0,0,0,0,0,0,0,0,0,0,0,0,0,0,0,0,0,0,0,0,0,0,0,0,0,0,0,0,0,0,0,0,0,0,0,0,0,0,0,0,0,0,0,0,0,0,0,0,0,0,0,0,0,0,0,0,0,0,0,0,0,0,0,0,0,0,0,0,0,0,0,0,0,0,0,0,0,0,0,0,0,0,0,0,0,0,0,0,0,0,0,0,0,0,0,0,0,0,0,0,0,0,0,0,0,0,0,0,0,0,0,0,0,0,0,0,0,0,0,0,0,0,0,0,0,0,0,0,0,0,0,0,0,0,0,0,0,0,0,0,0,0,0,0,0,0,0,0,0,0,0,0,0,0,0,0,0,0,0,0,0,0,0,0,0,0,0,0,0,0,0,0,0,0,0,0,0,0,0,0,0,0,0,0,0,0,0,0,0,0,0,0,0,0,0,0,0,0,0,0,0,0,0,0,0,0,0,0,0,0,0,0,0,0,0,0,0,0,0,0,0,0,0,0,0,0,0,0,0,0,0,0,0,0,0,0,0,0,0,0,0,0,0,0,0,0,0,0,0,0,0,0,0,0,0,0,0,0,0,0,0,0,0,0,0,0,0,0,0,0,0,0,0,0,0,0,0,0,0,0,0,0,0,0,0,0,0,0],"trees":[{"base_weights":[1.2071145E-2,-1.2079431E0,1.8764822E0,-1.060738E0,-1.6427585E0,-2.2125205E-1,9.685551E-2,-1.2473856E0,-7.6028E-1,-1.6893886E0,-5.705377E-1,-2.303375E-2,1.1145766E-2,-9.6651787E-1,-1.6229478E0,2.2333117E-1,-9.166514E-1,-1.2891561E0,-1.8361923E0,1.1145766E-2,-5.552092E-2,-5.8634665E-2,8.163742E-3,-5.1460363E-2,-8.6606406E-2,6.475361E-2,-3.0383268E-2,-6.857E-2,-3.7439205E-2,-9.085243E-2,5.1032705E-5,-2.303375E-2,-9.6431084E-2],"categories":[],"categories_nodes":[],"categories_segments":[],"categories_sizes":[],"default_left":[0,0,0,0,0,0,0,0,0,0,0,0,0,0,0,0,0,0,0,0,0,0,0,0,0,0,0,0,0,0,0,0,0],"id":0,"left_children":[1,3,5,7,9,11,-1,13,15,17,19,-1,-1,21,23,25,27,29,31,-1,-1,-1,-1,-1,-1,-1,-1,-1,-1,-1,-1,-1,-1],"loss_changes":[7.375334E2,1.0802856E1,1.6739563E1,7.421524E0,1.4235382E0,5.812386E-1,0E0,7.9776306E0,9.394779E0,2.9153442E-1,1.7468233E0,0E0,0E0,1.2828209E1,6.3199615E-1,8.802484E0,2.9235802E0,1.0558508E1,3.0210342E0,0E0,0E0,0E0,0E0,0E0,0E0,0E0,0E0,0E0,0E0,0E0,0E0,0E0,0E0],"parents":[2147483647,0,0,1,1,2,2,3,3,4,4,5,5,7,7,8,8,9,9,10,10,13,13,14,14,15,15,16,16,17,17,18,18],"right_children":[2,4,6,8,10,12,-1,14,16,18,20,-1,-1,22,24,26,28,30,32,-1,-1,-1,-1,-1,-1,-1,-1,-1,-1,-1,-1,-1,-1],"split_conditions":[1E0,1E0,-1.2934335E0,2.4779555E-1,1.9478462E0,1E0,9.685551E-2,-6.1875266E-1,3.862887E-1,-5.033154E-1,1.2230649E0,-2.303375E-2,1.1145766E-2,-7.700991E-1,-5.630563E-1,7.825596E-2,2.0231806E-2,8.353757E-2,-1.1096045E0,1.1145766E-2,-5.552092E-2,-5.8634665E-2,8.163742E-3,-5.1460363E-2,-8.6606406E-2,6.475361E-2,-3.0383268E-2,-6.857E-2,-3.7439205E-2,-9.085243E-2,5.1032705E-5,-2.303375E-2,-9.6431084E-2],"split_indices":[1,4,8,8,8,4,0,8,8,6,6,0,0,8,5,5,6,8,8,0,0,0,0,0,0,0,0,0,0,0,0,0,0],"split_type":[0,0,0,0,0,0,0,0,0,0,0,0,0,0,0,0,0,0,0,0,0,0,0,0,0,0,0,0,0,0,0,0,0],"sum_hessian":[3.2224985E2,1.9499991E2,1.2724994E2,1.4824992E2,4.6749977E1,3.4999983E0,1.2374994E2,8.9499954E1,5.8749973E1,4.4249977E1,2.4999988E0,2.249999E0,1.2499994E0,5.3249973E1,3.624998E1,7.999996E0,5.0749977E1,1.4499993E1,2.9749987E1,1.2499994E0,1.2499994E0,4.4999977E1,8.249996E0,7.2499967E0,2.8999987E1,3.2499986E0,4.7499976E0,1.1749994E1,3.899998E1,9.999995E0,4.499998E0,2.249999E0,2.7499987E1],"tree_param":{"num_deleted":"0","num_feature":"9","num_nodes":"33","size_leaf_vector":"1"}},{"base_weights":[2.4622409E-2,-1.2536302E0,7.238034E-2,-1.4497983E0,1.6187618E-3,-6.4990245E-2,3.6122227E-1,-8.39281E-2,-6.2026435E-1,-3.053731E-1,1.4348517E-1,4.0880555E-1,-6.503769E-2,-5.3061444E-2,1.2328519E-3,-3.8766322E-1,3.9472026E-1,-6.719102E-2,4.5071545E-1,-4.7448048E-1,4.960477E-1,-1.2610862E-2,-6.31639E-2,-1.2326701E-2,5.2580334E-2,6.879074E-3,-3.3133697E-2,9.191419E-3,6.0641743E-2,-4.5686316E-2,4.4788316E-2,2.8388074E-2,-2.1224296E-2],"categories":[],"categories_nodes":[],"categories_segments":[],"categories_sizes":[],"default_left":[0,0,0,0,0,0,0,0,0,0,0,0,0,0,0,0,0,0,0,0,0,0,0,0,0,0,0,0,0,0,0,0,0],"id":1,"left_children":[1,3,5,7,-1,9,11,-1,13,15,17,19,-1,-1,-1,21,23,25,27,29,31,-1,-1,-1,-1,-1,-1,-1,-1,-1,-1,-1,-1],"loss_changes":[1.9473055E1,2.9454918E0,1.220514E1,8.5479355E-1,0E0,1.0512945E1,8.369081E0,0E0,1.0914104E0,5.761298E0,7.315774E0,7.7183285E0,0E0,0E0,0E0,1.0072197E1,4.780925E0,8.339325E0,9.1165285E0,6.3798733E0,6.107479E0,0E0,0E0,0E0,0E0,0E0,0E0,0E0,0E0,0E0,0E0,0E0,0E0],"parents":[2147483647,0,0,1,1,2,2,3,3,5,5,6,6,8,8,9,9,10,10,11,11,15,15,16,16,17,17,18,18,19,19,20,20],"right_children":[2,4,6,8,-1,10,12,-1,14,16,18,20,-1,-1,-1,22,24,26,28,30,32,-1,-1,-1,-1,-1,-1,-1,-1,-1,-1,-1,-1],"split_conditions":[-1.3884935E0,-1.1331116E0,1E0,1E0,1.6187618E-3,1E0,2.3528163E0,-8.39281E-2,-1.3468823E0,1.5746512E0,7.227705E-1,-1.4181393E0,-6.503769E-2,-5.3061444E-2,1.2328519E-3,1.0758528E0,-9.225236E-2,1E0,7.195682E-1,7.227705E-1,1.9742517E0,-1.2610862E-2,-6.31639E-2,-1.2326701E-2,5.2580334E-2,6.879074E-3,-3.3133697E-2,9.191419E-3,6.0641743E-2,-4.5686316E-2,4.4788316E-2,2.8388074E-2,-2.1224296E-2],"split_indices":[8,5,3,4,0,0,7,0,5,5,7,5,0,0,0,5,7,2,5,7,8,0,0,0,0,0,0,0,0,0,0,0,0],"split_type":[0,0,0,0,0,0,0,0,0,0,0,0,0,0,0,0,0,0,0,0,0,0,0,0,0,0,0,0,0,0,0,0,0],"sum_hessian":[3.1649982E2,1.0489739E1,3.0601007E2,8.990896E0,1.4988433E0,2.0790659E2,9.810348E1,6.245149E0,2.7457466E0,9.634782E1,1.1155877E2,9.610594E1,1.9975405E0,1.2473531E0,1.4983934E0,8.66134E1,9.734408E0,6.66419E1,4.491687E1,8.240103E0,8.786584E1,7.61258E1,1.0487606E1,5.241923E0,4.492486E0,5.0161503E1,1.6480398E1,3.418634E1,1.073053E1,6.4921484E0,1.7479541E0,8.187094E1,5.994894E0],"tree_param":{"num_deleted":"0","num_feature":"9","num_nodes":"33","size_leaf_vector":"1"}},{"base_weights":[9.10593E-3,-4.891295E-1,1.0585081E-1,-1.148759E0,1.2840621E-1,-1.1814309E-1,2.9845834E-1,-3.5718215E-1,-1.2809056E0,5.2041966E-1,-9.4999427E-1,5.5413216E-1,-2.779916E-1,1.1898393E-1,6.503917E-1,-6.079569E-2,2.3954822E-2,-7.070975E-2,-8.071843E-1,6.9193885E-2,1.2444439E0,-1.1477093E0,-8.635349E-3,-4.5523098E-1,7.914229E-1,-7.6040305E-2,-2.1455325E-1,-1.0099224E0,1.817895E-1,8.494395E-1,1.3755187E-1,-4.6656746E-3,-7.002274E-2,-3.216488E-2,2.684924E-2,7.022437E-2,1.0542869E-2,-2.3572313E-2,-7.1363844E-2,3.1897858E-2,-6.622709E-2,4.641335E-2,6.0066575E-4,-1.4032851E-2,3.0831827E-2,-7.0197895E-2,-7.3470577E-4,1.115499E-2,-6.227526E-2,4.7794346E-2,3.4890582E-3,3.600806E-2,-1.8764198E-2],"categories":[],"categories_nodes":[],"categories_segments":[],"categories_sizes":[],"default_left":[0,0,0,0,0,0,0,0,0,0,0,0,0,0,0,0,0,0,0,0,0,0,0,0,0,0,0,0,0,0,0,0,0,0,0,0,0,0,0,0,0,0,0,0,0,0,0,0,0,0,0,0,0],"id":2,"left_children":[1,3,5,7,9,11,13,15,17,19,21,23,25,27,29,-1,-1,-1,31,33,35,37,-1,39,41,-1,43,45,47,49,51,-1,-1,-1,-1,-1,-1,-1,-1,-1,-1,-1,-1,-1,-1,-1,-1,-1,-1,-1,-1,-1,-1],"loss_changes":[1.5385048E1,2.1289745E1,1.1563208E1,2.1781464E0,1.2207066E1,1.3506527E1,9.01499E0,4.166952E0,1.9742584E-1,6.763347E0,9.913354E-1,6.1571264E0,7.6407137E0,7.0296907E0,4.823118E0,0E0,0E0,0E0,2.8280554E0,5.003263E0,1.0256643E0,4.602766E-1,0E0,5.8262253E0,2.1178465E0,0E0,5.5195694E0,2.0347843E0,5.7210274E0,2.8105621E0,4.669614E0,0E0,0E0,0E0,0E0,0E0,0E0,0E0,0E0,0E0,0E0,0E0,0E0,0E0,0E0,0E0,0E0,0E0,0E0,0E0,0E0,0E0,0E0],"parents":[2147483647,0,0,1,1,2,2,3,3,4,4,5,5,6,6,7,7,8,8,9,9,10,10,11,11,12,12,13,13,14,14,18,18,19,19,20,20,21,21,23,23,24,24,26,26,27,27,28,28,29,29,30,30],"right_children":[2,4,6,8,10,12,14,16,18,20,22,24,26,28,30,-1,-1,-1,32,34,36,38,-1,40,42,-1,44,46,48,50,52,-1,-1,-1,-1,-1,-1,-1,-1,-1,-1,-1,-1,-1,-1,-1,-1,-1,-1,-1,-1,-1,-1],"split_conditions":[-1.0277473E0,-5.8118474E-1,1E0,-1.8403488E0,-1.3468823E0,-8.7443745E-1,1E0,1E0,1E0,1E0,1E0,-1.4211798E0,-1.2043686E0,-1.33834E0,1.0640126E0,-6.079569E-2,2.3954822E-2,-7.070975E-2,-1.2043686E0,1.196395E-1,2.2236079E-1,-1.1328452E0,-8.635349E-3,4.3454054E-1,3.862887E-1,-7.6040305E-2,1.717165E0,1.0758528E0,1.6057845E0,1.1945506E0,-6.580904E-2,-4.6656746E-3,-7.002274E-2,-3.216488E-2,2.684924E-2,7.022437E-2,1.0542869E-2,-2.3572313E-2,-7.1363844E-2,3.1897858E-2,-6.622709E-2,4.641335E-2,6.0066575E-4,-1.4032851E-2,3.0831827E-2,-7.0197895E-2,-7.3470577E-4,1.115499E-2,-6.227526E-2,4.7794346E-2,3.4890582E-3,3.600806E-2,-1.8764198E-2],"split_indices":[8,6,0,6,5,6,3,2,4,2,2,6,5,6,6,0,0,0,5,6,6,8,0,5,8,0,5,5,6,8,8,0,0,0,0,0,0,0,0,0,0,0,0,0,0,0,0,0,0,0,0,0,0],"split_type":[0,0,0,0,0,0,0,0,0,0,0,0,0,0,0,0,0,0,0,0,0,0,0,0,0,0,0,0,0,0,0,0,0,0,0,0,0,0,0,0,0,0,0,0,0,0,0,0,0,0,0,0,0],"sum_hessian":[3.1710632E2,5.090257E1,2.6620374E2,2.4196503E1,2.6706066E1,1.2325284E2,1.429509E2,3.9912522E0,2.020525E1,1.9965681E1,6.7403846E0,2.3202679E1,1.0005016E2,9.555771E1,4.7393192E1,1.7452186E0,2.2460337E0,1.4219165E1,5.9860854E0,1.2974989E1,6.9906917E0,4.993623E0,1.7467618E0,4.241627E0,1.896105E1,3.7432644E0,9.63069E1,4.2413273E0,9.131638E1,3.366896E1,1.3724231E1,3.242153E0,2.7439322E0,4.993784E0,7.981205E0,5.742638E0,1.2480536E0,2.2462864E0,2.7473366E0,1.9967635E0,2.244864E0,1.5966722E1,2.9943295E0,8.98255E1,6.4813976E0,2.744158E0,1.4971693E0,8.956771E1,1.7486744E0,2.9425447E1,4.2435117E0,6.2357774E0,7.488454E0],"tree_param":{"num_deleted":"0","num_feature":"9","num_nodes":"53","size_leaf_vector":"1"}},{"base_weights":[5.43411E-2,-1.1060191E0,1.7829272E0,-1.262577E0,-6.4759326E-1,7.1104044E-1,9.1504395E-2,-1.1289629E0,-8.3444916E-2,-9.1019E-1,-6.6079902E-3,-5.41292E-1,7.42681E-2,-8.4444754E-2,-1.0647185E0,-1.1117538E0,2.659165E-1,5.685846E-2,-2.9737192E-1,1.2272052E-2,-5.436488E-2,-3.940509E-2,-6.2072705E-2,-5.807462E-2,-8.043457E-3,6.93046E-2,-3.5558086E-2,-6.573854E-2,-6.0795975E-4],"categories":[],"categories_nodes":[],"categories_segments":[],"categories_sizes":[],"default_left":[0,0,0,0,0,0,0,0,0,0,0,0,0,0,0,0,0,0,0,0,0,0,0,0,0,0,0,0,0],"id":3,"left_children":[1,3,5,7,9,11,-1,13,-1,15,17,19,-1,-1,21,23,25,-1,27,-1,-1,-1,-1,-1,-1,-1,-1,-1,-1],"loss_changes":[6.630318E2,1.33798065E1,5.409851E0,6.0643005E0,8.816011E0,7.8153424E0,0E0,2.2762756E0,0E0,9.107849E0,5.7388077E0,1.7683563E0,0E0,0E0,4.1213303E0,1.3231697E0,7.8216033E0,0E0,3.9711323E0,0E0,0E0,0E0,0E0,0E0,0E0,0E0,0E0,0E0,0E0],"parents":[2147483647,0,0,1,1,2,2,3,3,4,4,5,5,7,7,9,9,10,10,11,11,14,14,15,15,16,16,18,18],"right_children":[2,4,6,8,10,12,-1,14,-1,16,18,20,-1,-1,22,24,26,-1,28,-1,-1,-1,-1,-1,-1,-1,-1,-1,-1],"split_conditions":[1E0,9.3333894E-1,-1.4211798E0,1E0,1E0,-6.343132E-1,9.1504395E-2,-1.4181393E0,-8.3444916E-2,1.0954916E0,-7.0710117E-1,-1.2756255E0,7.42681E-2,-8.4444754E-2,-5.630563E-1,1.788422E0,1.1683906E0,5.685846E-2,9.644437E-2,1.2272052E-2,-5.436488E-2,-3.940509E-2,-6.2072705E-2,-5.807462E-2,-8.043457E-3,6.93046E-2,-3.5558086E-2,-6.573854E-2,-6.0795975E-4],"split_indices":[1,5,6,4,3,5,0,5,0,6,6,5,0,0,5,5,6,0,6,0,0,0,0,0,0,0,0,0,0],"split_type":[0,0,0,0,0,0,0,0,0,0,0,0,0,0,0,0,0,0,0,0,0,0,0,0,0,0,0,0,0],"sum_hessian":[3.2857706E2,1.9681789E2,1.3175917E2,1.4540585E2,5.1412033E1,6.2303495E0,1.25528824E2,1.12266685E2,3.313916E1,3.6172867E1,1.5239164E1,2.495406E0,3.7349439E0,8.952361E0,1.0331433E2,3.092721E1,5.245659E0,2.498774E0,1.2740391E1,1.2478591E0,1.2475468E0,4.2404457E1,6.090987E1,2.9179417E1,1.7477931E0,2.2488484E0,2.9968104E0,1.9991868E0,1.0741204E1],"tree_param":{"num_deleted":"0","num_feature":"9","num_nodes":"29","size_leaf_vector":"1"}},{"base_weights":[-8.010183E-3,-1.0851076E0,1.6997392E0,-1.3409299E0,-7.987485E-1,-6.020504E-1,1.7575803E0,-1.0630012E0,-8.705734E-2,-9.8497145E-2,-9.860524E-1,-5.211842E-2,1.7567826E-3,8.45947E-1,8.8981204E-2,-1.1262131E0,1.5892942E-2,-7.684878E-1,4.4229916E-1,-7.883765E-1,-1.4680378E0,5.3124476E-2,6.586107E-3,-6.350262E-2,-3.3961054E-2,-5.938658E-2,1.1012599E-2,4.2530086E-2,-1.6005827E-2,-7.408527E-3,-4.5138527E-2,-2.7283737E-2,-7.899754E-2],"categories":[],"categories_nodes":[],"categories_segments":[],"categories_sizes":[],"default_left":[0,0,0,0,0,0,0,0,0,0,0,0,0,0,0,0,0,0,0,0,0,0,0,0,0,0,0,0,0,0,0,0,0],"id":4,"left_children":[1,3,5,7,9,11,13,15,-1,17,19,-1,-1,21,-1,23,-1,25,27,29,31,-1,-1,-1,-1,-1,-1,-1,-1,-1,-1,-1,-1],"loss_changes":[5.810347E2,1.3119019E1,1.732428E1,9.36499E0,1.2214798E1,1.085854E0,8.947449E-1,5.7763443E0,0E0,7.9200387E0,5.888275E0,0E0,0E0,5.9094787E-1,0E0,2.9679413E0,0E0,4.2863965E0,4.0735784E0,3.8650055E0,1.2382393E0,0E0,0E0,0E0,0E0,0E0,0E0,0E0,0E0,0E0,0E0,0E0,0E0],"parents":[2147483647,0,0,1,1,2,2,3,3,4,4,5,5,6,6,7,7,9,9,10,10,13,13,15,15,17,17,18,18,19,19,20,20],"right_children":[2,4,6,8,10,12,14,16,-1,18,20,-1,-1,22,-1,24,-1,26,28,30,32,-1,-1,-1,-1,-1,-1,-1,-1,-1,-1,-1,-1],"split_conditions":[1E0,8.353757E-2,-1.3884935E0,-6.1875266E-1,-4.701795E-1,-1.4708836E0,-1.2689697E0,-6.653118E-1,-8.705734E-2,-9.225236E-2,1E0,-5.211842E-2,1.7567826E-3,1E0,8.8981204E-2,7.227705E-1,1.5892942E-2,5.172485E-1,3.862887E-1,3.7030947E-1,-1.719564E-1,5.3124476E-2,6.586107E-3,-6.350262E-2,-3.3961054E-2,-5.938658E-2,1.1012599E-2,4.2530086E-2,-1.6005827E-2,-7.408527E-3,-4.5138527E-2,-2.7283737E-2,-7.899754E-2],"split_indices":[1,8,8,8,6,6,8,8,0,7,4,0,0,0,0,7,0,8,8,8,6,0,0,0,0,0,0,0,0,0,0,0,0],"split_type":[0,0,0,0,0,0,0,0,0,0,0,0,0,0,0,0,0,0,0,0,0,0,0,0,0,0,0,0,0,0,0,0,0],"sum_hessian":[3.1387793E2,1.927027E2,1.2117524E2,9.9833015E1,9.286968E1,2.7397082E0,1.1843553E2,6.10755E1,3.8757515E1,1.9920622E1,7.2949066E1,1.2440987E0,1.4956095E0,3.7258565E0,1.1470967E2,5.857836E1,2.497139E0,8.709465E0,1.1211157E1,5.360133E1,1.9347733E1,2.4848688E0,1.2409878E0,4.2924267E1,1.5654095E1,5.9747877E0,2.7346778E0,7.2258E0,3.9853566E0,8.473677E0,4.512765E1,2.7292979E0,1.6618435E1],"tree_param":{"num_deleted":"0","num_feature":"9","num_nodes":"33","size_leaf_vector":"1"}},{"base_weights":[-3.2499734E-2,-1.0843593E0,1.6284094E0,-7.4879624E-2,-1.0396376E0,8.76675E-1,8.442113E-2,-6.5432096E-1,-1.0922953E0,-7.0291865E-1,7.635983E-2,-1.096104E0,-2.7440736E-1,-1.5424572E0,-1.0313271E0,2.3156812E-3,-5.8552463E-2,-2.697818E-2,-7.535668E-2,-5.2914064E-2,1.4211066E-2,-8.441581E-2,-2.8748438E-2,-1.0240512E-2,-5.377416E-2],"categories":[],"categories_nodes":[],"categories_segments":[],"categories_sizes":[],"default_left":[0,0,0,0,0,0,0,0,0,0,0,0,0,0,0,0,0,0,0,0,0,0,0,0,0],"id":5,"left_children":[1,3,5,-1,7,9,-1,11,13,15,-1,17,19,21,23,-1,-1,-1,-1,-1,-1,-1,-1,-1,-1],"loss_changes":[5.622405E2,2.0840912E0,4.1496887E0,0E0,2.9587708E0,1.2691129E1,0E0,3.7712898E0,2.7398376E0,1.4511436E0,0E0,1.6764545E0,6.596914E0,1.4005203E0,4.9615784E0,0E0,0E0,0E0,0E0,0E0,0E0,0E0,0E0,0E0,0E0],"parents":[2147483647,0,0,1,1,2,2,4,4,5,5,7,7,8,8,9,9,11,11,12,12,13,13,14,14],"right_children":[2,4,6,-1,8,10,-1,12,14,16,-1,18,20,22,24,-1,-1,-1,-1,-1,-1,-1,-1,-1,-1],"split_conditions":[1E0,-1.3366833E0,-1.273725E0,-7.4879624E-2,-8.545559E-1,-6.343132E-1,8.442113E-2,-1.1097023E0,-5.6627357E-1,-1.2756255E0,7.635983E-2,-9.225236E-2,-9.225236E-2,1.5377934E0,-4.9337462E-1,2.3156812E-3,-5.8552463E-2,-2.697818E-2,-7.535668E-2,-5.2914064E-2,1.4211066E-2,-8.441581E-2,-2.8748438E-2,-1.0240512E-2,-5.377416E-2],"split_indices":[1,6,6,0,6,5,0,6,6,5,0,7,7,7,6,0,0,0,0,0,0,0,0,0,0],"split_type":[0,0,0,0,0,0,0,0,0,0,0,0,0,0,0,0,0,0,0,0,0,0,0,0,0],"sum_hessian":[3.198133E2,1.9602017E2,1.2379313E2,1.5969907E1,1.8005026E2,1.0306042E1,1.1348708E2,2.3261688E1,1.5678857E2,2.982763E0,7.3232784E0,9.883502E0,1.3378186E1,1.5803473E1,1.4098509E2,1.4935066E0,1.4892566E0,5.181024E0,4.7024784E0,5.1946163E0,8.18357E0,1.30856285E1,2.7178452E0,7.436001E0,1.335491E2],"tree_param":{"num_deleted":"0","num_feature":"9","num_nodes":"25","size_leaf_vector":"1"}},{"base_weights":[-2.0876406E-2,-9.459047E-1,1.5609856E0,-1.1713773E0,-6.8782985E-1,-2.9662177E-1,1.6261774E0,-9.2878085E-1,-1.5029509E0,-2.0890121E-1,-8.153545E-1,-5.5235E-2,1.5477652E-2,1.1433821E0,8.331205E-2,-1.2061672E0,-1.24431066E-1,-9.249024E-1,-8.049621E-2,-1.0438707E0,1.4718665E-1,-1.0198768E0,-3.1471935E-1,7.608359E-2,-2.3998884E-2,-6.491679E-2,-2.6578605E-3,-2.9112874E-2,3.350887E-2,-5.8823533E-2,1.7613767E-2,1.6969249E-2,-7.1946524E-2,-2.1907765E-2,4.9291592E-2,-3.899586E-2,-7.531088E-2,1.2702479E-2,-5.242541E-2],"categories":[],"categories_nodes":[],"categories_segments":[],"categories_sizes":[],"default_left":[0,0,0,0,0,0,0,0,0,0,0,0,0,0,0,0,0,0,0,0,0,0,0,0,0,0,0,0,0,0,0,0,0,0,0,0,0,0,0],"id":6,"left_children":[1,3,5,7,9,11,13,15,17,19,21,-1,-1,23,-1,25,27,29,-1,31,33,35,37,-1,-1,-1,-1,-1,-1,-1,-1,-1,-1,-1,-1,-1,-1,-1,-1],"loss_changes":[4.5387418E2,1.0582443E1,1.4343475E1,6.8917236E0,5.551201E0,2.6571436E0,2.3669434E-1,1.37089615E1,1.1027908E0,6.4103346E0,7.2187386E0,0E0,0E0,7.8978834E0,0E0,4.8271866E0,6.5904217E0,3.2725596E0,0E0,3.9938874E0,8.103916E0,4.874283E0,9.783631E0,0E0,0E0,0E0,0E0,0E0,0E0,0E0,0E0,0E0,0E0,0E0,0E0,0E0,0E0,0E0,0E0],"parents":[2147483647,0,0,1,1,2,2,3,3,4,4,5,5,6,6,7,7,8,8,9,9,10,10,13,13,15,15,16,16,17,17,19,19,20,20,21,21,22,22],"right_children":[2,4,6,8,10,12,14,16,18,20,22,-1,-1,24,-1,26,28,30,-1,32,34,36,38,-1,-1,-1,-1,-1,-1,-1,-1,-1,-1,-1,-1,-1,-1,-1,-1],"split_conditions":[1E0,1.2955311E-1,-1.2934335E0,-6.1875266E-1,3.862887E-1,-1.3468823E0,-1.0310285E0,7.227705E-1,-5.630563E-1,-9.225236E-2,1.4373262E0,-5.5235E-2,1.5477652E-2,-1.0618547E0,8.331205E-2,-4.9179938E-1,1E0,1E0,-8.049621E-2,1.538229E-1,7.195682E-1,1.0003533E0,1.2296921E0,7.608359E-2,-2.3998884E-2,-6.491679E-2,-2.6578605E-3,-2.9112874E-2,3.350887E-2,-5.8823533E-2,1.7613767E-2,1.6969249E-2,-7.1946524E-2,-2.1907765E-2,4.9291592E-2,-3.899586E-2,-7.531088E-2,1.2702479E-2,-5.242541E-2],"split_indices":[1,8,8,8,8,5,8,7,5,7,8,0,0,5,0,5,2,2,0,8,5,8,6,0,0,0,0,0,0,0,0,0,0,0,0,0,0,0,0],"split_type":[0,0,0,0,0,0,0,0,0,0,0,0,0,0,0,0,0,0,0,0,0,0,0,0,0,0,0,0,0,0,0,0,0,0,0,0,0,0,0],"sum_hessian":[3.0816956E2,1.9471042E2,1.1345913E2,1.0203044E2,9.267998E1,3.7264338E0,1.097327E2,6.1115955E1,4.0914482E1,2.0043446E1,7.263653E1,1.2447172E0,2.4817164E0,1.0671575E1,9.906113E1,4.5072716E1,1.6043238E1,7.895558E0,3.3018925E1,5.4148903E0,1.4628555E1,5.083285E1,2.180368E1,8.705567E0,1.966008E0,4.1619705E1,3.45301E0,1.0348198E1,5.69504E0,6.662152E0,1.2334061E0,1.2342467E0,4.1806436E0,8.89661E0,5.731946E0,3.578182E1,1.5051033E1,1.265129E1,9.1523905E0],"tree_param":{"num_deleted":"0","num_feature":"9","num_nodes":"39","size_leaf_vector":"1"}},{"base_weights":[-2.4007725E-2,-9.63657E-1,1.5104772E0,-1.1425111E0,-7.64257E-1,-1.9618774E-2,1.5505424E0,-9.027446E-1,-1.500542E0,-3.185249E-1,-9.112718E-1,1.0458615E0,8.051694E-2,-1.1050984E0,2.457741E-4,-7.841616E-2,-7.442767E-1,-7.601109E-1,1.7154841E-1,-1.0176414E0,-6.1803055E-1,1.3891959E0,-6.2809005E-2,-3.3229794E-2,-6.353056E-2,-6.41297E-2,2.2393549E-2,2.1597687E-2,-6.1178844E-2,7.7224895E-3,-4.4365965E-2,2.8869724E-2,-3.5329606E-2,-5.2861463E-2,1.4871401E-2,6.2709175E-2,-4.115799E-2,7.544091E-2,2.1814771E-2],"categories":[],"categories_nodes":[],"categories_segments":[],"categories_sizes":[],"default_left":[0,0,0,0,0,0,0,0,0,0,0,0,0,0,0,0,0,0,0,0,0,0,0,0,0,0,0,0,0,0,0,0,0,0,0,0,0,0,0],"id":7,"left_children":[1,3,5,7,9,-1,11,13,15,17,19,21,-1,23,25,-1,27,29,31,33,35,37,-1,-1,-1,-1,-1,-1,-1,-1,-1,-1,-1,-1,-1,-1,-1,-1,-1],"loss_changes":[4.4873685E2,6.0100403E0,9.619965E0,7.2060547E0,5.8879013E0,0E0,1.8154907E0,1.1372295E1,8.056259E-1,5.5235844E0,1.5657272E0,1.3709316E1,0E0,2.8624573E0,7.691045E0,0E0,3.3862333E0,1.6835785E0,4.9084654E0,2.921894E0,9.203031E0,8.9738846E-1,0E0,0E0,0E0,0E0,0E0,0E0,0E0,0E0,0E0,0E0,0E0,0E0,0E0,0E0,0E0,0E0,0E0],"parents":[2147483647,0,0,1,1,2,2,3,3,4,4,6,6,7,7,8,8,9,9,10,10,11,11,13,13,14,14,16,16,17,17,18,18,19,19,20,20,21,21],"right_children":[2,4,6,8,10,-1,12,14,16,18,20,22,-1,24,26,-1,28,30,32,34,36,38,-1,-1,-1,-1,-1,-1,-1,-1,-1,-1,-1,-1,-1,-1,-1,-1,-1],"split_conditions":[1E0,8.353757E-2,-1.4405085E0,-6.1875266E-1,3.862887E-1,-1.9618774E-2,-1.0310285E0,-7.700991E-1,5.770544E-1,1E0,1.4373262E0,-1.0618547E0,8.051694E-2,-1.2498256E0,-9.225236E-2,-7.841616E-2,6.483113E-1,1.0371063E-1,1E0,1.788422E0,1.4616349E0,1E0,-6.2809005E-2,-3.3229794E-2,-6.353056E-2,-6.41297E-2,2.2393549E-2,2.1597687E-2,-6.1178844E-2,7.7224895E-3,-4.4365965E-2,2.8869724E-2,-3.5329606E-2,-5.2861463E-2,1.4871401E-2,6.2709175E-2,-4.115799E-2,7.544091E-2,2.1814771E-2],"split_indices":[1,8,8,8,8,0,8,8,5,0,8,5,0,8,7,0,5,8,4,5,8,4,0,0,0,0,0,0,0,0,0,0,0,0,0,0,0,0,0],"split_type":[0,0,0,0,0,0,0,0,0,0,0,0,0,0,0,0,0,0,0,0,0,0,0,0,0,0,0,0,0,0,0,0,0,0,0,0,0,0,0],"sum_hessian":[3.0920752E2,1.9200458E2,1.17202934E2,9.8723564E1,9.328101E1,2.2355297E0,1.1496741E2,6.123622E1,3.748734E1,2.3921217E1,6.9359795E1,1.4137512E1,1.00829895E2,4.9842945E1,1.1393275E1,3.3418396E1,4.0689416E0,1.2293241E1,1.1627976E1,4.908463E1,2.0275164E1,1.2647724E1,1.4897878E0,1.4982701E1,3.4860245E1,2.4646254E0,8.92865E0,1.2066169E0,2.8623247E0,1.4749544E0,1.0818287E1,8.186801E0,3.441175E0,4.7840538E1,1.2440904E0,1.4970921E0,1.8778072E1,1.0718751E1,1.9289733E0],"tree_param":{"num_deleted":"0","num_feature":"9","num_nodes":"39","size_leaf_vector":"1"}},{"base_weights":[-2.2950312E-3,-9.058514E-1,1.4813346E0,-9.7202605E-1,-3.5152227E-1,2.968151E-1,7.7085696E-2,-7.3038423E-1,-1.1110356E0,-8.7765336E-1,2.4042979E-1,-1.09537624E-1,5.314852E-2,-1.2349919E0,-2.623814E-1,-1.4612671E0,-8.089779E-1,-1.1244957E-1,-7.533164E-2,-5.3871688E-2,5.930156E-1,-5.341322E-1,2.1821577E-2,-6.5725915E-2,1.9268889E-2,-3.395116E-2,4.266295E-3,-7.547076E-2,-2.9368436E-2,-2.5946954E-2,-5.885258E-2,-5.299123E-2,1.922725E-2,4.7931984E-2,-5.0399553E-2,1.33360075E-2,-5.4816473E-2],"categories":[],"categories_nodes":[],"categories_segments":[],"categories_sizes":[],"default_left":[0,0,0,0,0,0,0,0,0,0,0,0,0,0,0,0,0,0,0,0,0,0,0,0,0,0,0,0,0,0,0,0,0,0,0,0,0],"id":8,"left_children":[1,3,5,7,9,11,-1,13,15,17,19,21,-1,23,25,27,29,31,-1,-1,33,35,-1,-1,-1,-1,-1,-1,-1,-1,-1,-1,-1,-1,-1,-1,-1],"loss_changes":[4.1191885E2,6.6635895E0,7.8606567E0,4.900177E0,7.041889E0,2.2582026E0,0E0,1.5029671E1,1.0034058E1,5.5229177E0,5.7993636E0,1.4853386E0,0E0,4.5031395E0,5.128441E0,1.1270447E0,5.7055817E0,3.4286425E0,0E0,0E0,6.472657E0,1.8629948E0,0E0,0E0,0E0,0E0,0E0,0E0,0E0,0E0,0E0,0E0,0E0,0E0,0E0,0E0,0E0],"parents":[2147483647,0,0,1,1,2,2,3,3,4,4,5,5,7,7,8,8,9,9,10,10,11,11,13,13,14,14,15,15,16,16,17,17,20,20,21,21],"right_children":[2,4,6,8,10,12,-1,14,16,18,20,22,-1,24,26,28,30,32,-1,-1,34,36,-1,-1,-1,-1,-1,-1,-1,-1,-1,-1,-1,-1,-1,-1,-1],"split_conditions":[1E0,1.4373262E0,-1.2689697E0,-6.1875266E-1,-9.225236E-2,1E0,7.7085696E-2,-9.225236E-2,4.3454054E-1,1.5033942E0,9.3333894E-1,-1.2934335E0,5.314852E-2,-4.2054245E-1,-1.0092634E0,2.3528163E0,7.528015E-1,1.7858794E0,-7.533164E-2,-5.3871688E-2,1.717165E0,-1.4607981E0,2.1821577E-2,-6.5725915E-2,1.9268889E-2,-3.395116E-2,4.266295E-3,-7.547076E-2,-2.9368436E-2,-2.5946954E-2,-5.885258E-2,-5.299123E-2,1.922725E-2,4.7931984E-2,-5.0399553E-2,1.33360075E-2,-5.4816473E-2],"split_indices":[1,8,8,8,7,3,0,7,5,5,5,8,0,5,8,7,8,8,0,0,5,8,0,0,0,0,0,0,0,0,0,0,0,0,0,0,0],"split_type":[0,0,0,0,0,0,0,0,0,0,0,0,0,0,0,0,0,0,0,0,0,0,0,0,0,0,0,0,0,0,0,0,0,0,0,0,0],"sum_hessian":[3.052766E2,1.8997063E2,1.1530599E2,1.6903773E2,2.0932888E1,5.8794284E0,1.0942657E2,6.4014626E1,1.0502311E2,1.0827069E1,1.0105818E1,4.401823E0,1.4776051E0,3.0014109E1,3.4000515E1,4.685625E1,5.8166862E1,5.416385E0,5.4106846E0,1.6991357E0,8.406682E0,2.4883442E0,1.913479E0,2.8789877E1,1.2242304E0,1.5033593E1,1.8966923E1,4.3720238E1,3.1360128E0,3.387977E1,2.4287092E1,1.4740574E0,3.9423277E0,7.170396E0,1.2362862E0,1.2431078E0,1.2452365E0],"tree_param":{"num_deleted":"0","num_feature":"9","num_nodes":"37","size_leaf_vector":"1"}},{"base_weights":[3.1272138E-3,-8.6233675E-1,1.4144973E0,-1.0210187E0,-6.657719E-1,-5.385235E-2,1.4568144E0,-7.69889E-1,-1.4216621E0,-8.2529354E-1,-2.2107746E-1,8.858381E-1,7.60463E-2,-9.509364E-1,-1.9031103E-1,-1.1507741E-2,-1.4882392E0,-9.900494E-1,-2.4829194E-1,2.960934E-1,-9.732305E-1,1.2194511E0,-2.9299844E-2,-5.467772E-2,-2.6462693E-2,2.3924427E-2,-5.310553E-2,-7.8145474E-2,-4.410025E-2,-2.3430465E-2,-6.577936E-2,3.434025E-2,-2.2834487E-2,3.8478684E-2,-1.4989828E-2,-7.202658E-2,-6.7439075E-3,2.7223552E-2,6.928764E-2],"categories":[],"categories_nodes":[],"categories_segments":[],"categories_sizes":[],"default_left":[0,0,0,0,0,0,0,0,0,0,0,0,0,0,0,0,0,0,0,0,0,0,0,0,0,0,0,0,0,0,0,0,0,0,0,0,0,0,0],"id":9,"left_children":[1,3,5,7,9,-1,11,13,15,17,19,21,-1,23,25,-1,27,29,31,33,35,37,-1,-1,-1,-1,-1,-1,-1,-1,-1,-1,-1,-1,-1,-1,-1,-1,-1],"loss_changes":[3.664229E2,5.120407E0,1.3591492E1,9.069275E0,5.9137497E0,0E0,2.772644E0,6.563671E0,2.6513977E0,5.7320404E0,9.645117E0,7.4693193E0,0E0,2.3516655E0,1.0157647E1,0E0,2.3127747E-1,7.62994E0,3.2955623E0,4.4686127E0,3.7366285E0,5.4075813E-1,0E0,0E0,0E0,0E0,0E0,0E0,0E0,0E0,0E0,0E0,0E0,0E0,0E0,0E0,0E0,0E0,0E0],"parents":[2147483647,0,0,1,1,2,2,3,3,4,4,6,6,7,7,8,8,9,9,10,10,11,11,13,13,14,14,16,16,17,17,18,18,19,19,20,20,21,21],"right_children":[2,4,6,8,10,-1,12,14,16,18,20,22,-1,24,26,-1,28,30,32,34,36,38,-1,-1,-1,-1,-1,-1,-1,-1,-1,-1,-1,-1,-1,-1,-1,-1,-1],"split_conditions":[1E0,8.353757E-2,-1.3884935E0,-5.630563E-1,1E0,-5.385235E-2,-1.0310285E0,-7.700991E-1,-8.7498343E-1,9.8614323E-1,7.8567106E-1,-1.0618547E0,7.60463E-2,1E0,4.9407515E-1,-1.1507741E-2,5.770544E-1,-1.4379089E-1,1.0408175E0,6.511596E-1,1.2896235E0,-4.8674744E-1,-2.9299844E-2,-5.467772E-2,-2.6462693E-2,2.3924427E-2,-5.310553E-2,-7.8145474E-2,-4.410025E-2,-2.3430465E-2,-6.577936E-2,3.434025E-2,-2.2834487E-2,3.8478684E-2,-1.4989828E-2,-7.202658E-2,-6.7439075E-3,2.7223552E-2,6.928764E-2],"split_indices":[1,8,8,5,3,0,8,8,8,6,6,5,0,2,6,0,5,6,6,8,5,6,0,0,0,0,0,0,0,0,0,0,0,0,0,0,0,0,0],"split_type":[0,0,0,0,0,0,0,0,0,0,0,0,0,0,0,0,0,0,0,0,0,0,0,0,0,0,0,0,0,0,0,0,0,0,0,0,0,0,0],"sum_hessian":[2.9798172E2,1.8495485E2,1.1302687E2,1.0001828E2,8.493658E1,1.4792624E0,1.1154761E2,6.3276917E1,3.6741364E1,6.1882206E1,2.305437E1,1.2756418E1,9.879119E1,4.772724E1,1.5549675E1,2.1801922E0,3.456117E1,4.7580353E1,1.4301854E1,1.4020436E1,9.033935E0,1.0539061E1,2.2173574E0,3.447431E1,1.325293E1,9.054601E0,6.4950743E0,2.9366066E1,5.1951036E0,1.9225231E1,2.8355122E1,2.1880884E0,1.2113766E1,7.6502542E0,6.370182E0,5.3394265E0,3.6945083E0,2.9281948E0,7.610866E0],"tree_param":{"num_deleted":"0","num_feature":"9","num_nodes":"39","size_leaf_vector":"1"}},{"base_weights":[3.0440103E-2,-5.482717E-1,9.960888E-2,-1.0878673E0,-1.8148087E-1,2.0183846E-1,-2.7414155E-1,-5.0346446E-1,-7.318761E-2,3.6813208E-1,-6.967288E-1,-3.8321142E-3,3.3782437E-1,-7.1317464E-2,-7.261772E-1,-6.0366888E-2,2.585142E-2,-2.563238E-1,5.3744014E-2,-1.0478321E0,-8.1523106E-2,1.386673E-1,-5.188081E-1,7.977359E-1,2.75344E-1,-7.972242E-1,7.128168E-2,-6.576746E-2,1.694732E-1,-5.9394486E-2,2.9021708E-2,-6.255334E-2,-1.8735593E-2,-3.1497724E-2,4.2365883E-2,-1.290332E-3,3.948694E-2,-4.111318E-2,8.393968E-3,5.3807493E-2,2.2915188E-2,3.3207256E-3,2.6974086E-2,-6.0899954E-2,-5.383999E-3,-3.824863E-3,5.5304326E-2,-4.937611E-2,2.8154755E-2],"categories":[],"categories_nodes":[],"categories_segments":[],"categories_sizes":[],"default_left":[0,0,0,0,0,0,0,0,0,0,0,0,0,0,0,0,0,0,0,0,0,0,0,0,0,0,0,0,0,0,0,0,0,0,0,0,0,0,0,0,0,0,0,0,0,0,0,0,0],"id":10,"left_children":[1,3,5,7,9,11,13,15,-1,17,19,21,23,25,27,-1,-1,29,-1,31,33,35,37,39,41,43,45,-1,47,-1,-1,-1,-1,-1,-1,-1,-1,-1,-1,-1,-1,-1,-1,-1,-1,-1,-1,-1,-1],"loss_changes":[1.2328529E1,6.3120728E0,1.0552598E1,2.1427727E0,6.1412153E0,6.0510073E0,5.3970976E0,5.4049954E0,0E0,5.001824E0,2.305964E0,6.462406E0,3.5223713E0,4.418179E0,9.878759E0,0E0,0E0,5.750784E0,0E0,4.8391914E-1,3.1353188E0,7.4089613E0,4.114955E0,9.288902E-1,6.375429E0,1.8998065E0,5.6101904E0,0E0,4.266156E0,0E0,0E0,0E0,0E0,0E0,0E0,0E0,0E0,0E0,0E0,0E0,0E0,0E0,0E0,0E0,0E0,0E0,0E0,0E0,0E0],"parents":[2147483647,0,0,1,1,2,2,3,3,4,4,5,5,6,6,7,7,9,9,10,10,11,11,12,12,13,13,14,14,17,17,19,19,20,20,21,21,22,22,23,23,24,24,25,25,26,26,28,28],"right_children":[2,4,6,8,10,12,14,16,-1,18,20,22,24,26,28,-1,-1,30,-1,32,34,36,38,40,42,44,46,-1,48,-1,-1,-1,-1,-1,-1,-1,-1,-1,-1,-1,-1,-1,-1,-1,-1,-1,-1,-1,-1],"split_conditions":[-1.1627197E0,-6.343132E-1,1E0,-1.4607981E0,-5.976088E-1,-1.2611464E-1,5.407417E-1,-1.5006394E0,-7.318761E-2,6.9990424E-3,1.0045959E0,4.9407515E-1,-7.452074E-1,-6.441429E-1,1.5033942E0,-6.0366888E-2,2.585142E-2,1E0,5.3744014E-2,1E0,1E0,1.4780502E-1,-4.7276497E-1,1E0,7.094585E-1,1E0,5.770544E-1,-6.576746E-2,-1.4560887E-2,-5.9394486E-2,2.9021708E-2,-6.255334E-2,-1.8735593E-2,-3.1497724E-2,4.2365883E-2,-1.290332E-3,3.948694E-2,-4.111318E-2,8.393968E-3,5.3807493E-2,2.2915188E-2,3.3207256E-3,2.6974086E-2,-6.0899954E-2,-5.383999E-3,-3.824863E-3,5.5304326E-2,-4.937611E-2,2.8154755E-2],"split_indices":[6,5,4,8,8,8,8,8,0,5,5,6,6,6,5,0,0,2,0,2,3,6,8,0,6,0,5,0,6,0,0,0,0,0,0,0,0,0,0,0,0,0,0,0,0,0,0,0,0],"split_type":[0,0,0,0,0,0,0,0,0,0,0,0,0,0,0,0,0,0,0,0,0,0,0,0,0,0,0,0,0,0,0,0,0,0,0,0,0,0,0,0,0,0,0,0,0,0,0,0,0],"sum_hessian":[3.056272E2,3.1889761E1,2.7373743E2,1.2109402E1,1.978036E1,2.1530609E2,5.8431343E1,5.655692E0,6.453709E0,9.709161E0,1.0071198E1,8.60828E1,1.292233E2,4.113309E1,1.7298254E1,3.2387257E0,2.4169664E0,5.4930387E0,4.2161217E0,5.964172E0,4.1070266E0,6.79978E1,1.8084995E1,1.404819E1,1.151751E2,5.999865E0,3.5133224E1,1.0151713E1,7.1465406E0,2.4006984E0,3.0923402E0,3.921537E0,2.042635E0,2.7846324E0,1.3223941E0,5.505113E1,1.2946674E1,1.2405444E1,5.67955E0,6.5253963E0,7.522794E0,6.500691E1,5.016819E1,3.2501626E0,2.7497025E0,3.155323E1,3.579994E0,1.4311297E0,5.715411E0],"tree_param":{"num_deleted":"0","num_feature":"9","num_nodes":"49","size_leaf_vector":"1"}},{"base_weights":[3.275944E-2,-8.0663514E-1,1.4062711E0,-7.070302E-1,-1.0997111E0,7.925981E-1,7.24394E-2,-8.2417566E-1,-3.7331882E-1,-6.5899223E-1,-1.3286197E0,-2.198659E-2,6.4497784E-2,-1.1012113E0,-6.4908856E-1,-6.534818E-1,1.2088461E-1,-6.028525E-2,4.2888713E-1,-6.4756386E-3,-7.103039E-2,-1.3163949E-2,-6.4016946E-2,-7.56297E-3,-4.5711562E-2,-3.9639022E-2,2.0687629E-2,5.027025E-2,-8.365445E-3,-2.235241E-2,6.609764E-2],"categories":[],"categories_nodes":[],"categories_segments":[],"categories_sizes":[],"default_left":[0,0,0,0,0,0,0,0,0,0,0,0,0,0,0,0,0,0,0,0,0,0,0,0,0,0,0,0,0,0,0],"id":11,"left_children":[1,3,5,7,9,11,-1,13,15,17,19,-1,-1,21,23,25,27,-1,29,-1,-1,-1,-1,-1,-1,-1,-1,-1,-1,-1,-1],"loss_changes":[3.3866196E2,4.545471E0,1.7586517E0,5.1220703E0,3.608982E0,6.344983E0,0E0,4.2316513E0,5.328831E0,1.0734976E1,2.934555E0,0E0,0E0,5.374939E0,8.431089E0,3.948677E0,3.8802512E0,0E0,5.662948E0,0E0,0E0,0E0,0E0,0E0,0E0,0E0,0E0,0E0,0E0,0E0,0E0],"parents":[2147483647,0,0,1,1,2,2,3,3,4,4,5,5,7,7,8,8,9,9,10,10,13,13,14,14,15,15,16,16,18,18],"right_children":[2,4,6,8,10,12,-1,14,16,18,20,-1,-1,22,24,26,28,-1,30,-1,-1,-1,-1,-1,-1,-1,-1,-1,-1,-1,-1],"split_conditions":[1E0,1E0,-1.273725E0,9.3333894E-1,-5.033154E-1,-6.343132E-1,7.24394E-2,-9.225236E-2,1E0,-6.441429E-1,-1.3468823E0,-2.198659E-2,6.4497784E-2,-1.2107668E0,-5.630563E-1,1.0557287E0,1.0758528E0,-6.028525E-2,5.0579745E-1,-6.4756386E-3,-7.103039E-2,-1.3163949E-2,-6.4016946E-2,-7.56297E-3,-4.5711562E-2,-3.9639022E-2,2.0687629E-2,5.027025E-2,-8.365445E-3,-2.235241E-2,6.609764E-2],"split_indices":[1,4,6,5,6,5,0,7,3,6,5,0,0,6,5,6,5,0,5,0,0,0,0,0,0,0,0,0,0,0,0],"split_type":[0,0,0,0,0,0,0,0,0,0,0,0,0,0,0,0,0,0,0,0,0,0,0,0,0,0,0,0,0,0,0],"sum_hessian":[2.9175934E2,1.8134602E2,1.1041333E2,1.378938E2,4.345223E1,8.426768E0,1.0198656E2,1.00977196E2,3.691659E1,1.6179882E1,2.7272346E1,2.4563644E0,5.9704037E0,3.7055603E1,6.3921597E1,2.3354614E1,1.3561978E1,1.0696206E1,5.483676E0,2.114665E0,2.5157682E1,6.9613276E0,3.0094275E1,2.2759356E1,4.1162243E1,2.0885712E1,2.4689023E0,2.721263E0,1.0840715E1,3.0205188E0,2.4631574E0],"tree_param":{"num_deleted":"0","num_feature":"9","num_nodes":"31","size_leaf_vector":"1"}},{"base_weights":[5.399211E-3,-4.8141643E-1,1.0405229E-1,-3.233863E-1,-1.0249422E0,7.056072E-2,8.7126225E-2,-8.1777024E-1,-9.747303E-2,-7.071707E-2,-4.3344E-1,-7.456262E-2,2.3192759E-1,-6.809875E-2,1.0838491E-2,2.3417278E-1,-5.2489346E-1,1.5652601E-1,-5.363037E-2,-5.9629496E-2,-2.8741406E-2,2.541882E-1,-5.1472586E-2,3.61353E-2,-5.1211894E-2,-1.4393456E-2,2.6100377E-2,1.3112308E-2,-4.6513546E-2,-7.888283E-3,2.3487164E-2,-1.1607266E-2,5.0025606E-3,9.516957E-3,4.62241E-2],"categories":[],"categories_nodes":[],"categories_segments":[],"categories_sizes":[],"default_left":[0,0,0,0,0,0,0,0,0,0,0,0,0,0,0,0,0,0,0,0,0,0,0,0,0,0,0,0,0,0,0,0,0,0,0],"id":12,"left_children":[1,3,5,7,9,-1,11,13,15,-1,17,19,21,-1,23,25,27,29,-1,-1,31,33,-1,-1,-1,-1,-1,-1,-1,-1,-1,-1,-1,-1,-1],"loss_changes":[1.4385908E1,4.004113E0,5.3867702E0,4.451132E0,1.8996725E0,0E0,5.798099E0,5.6911335E0,4.230742E0,0E0,2.3446617E0,5.9804916E0,3.9259877E0,0E0,5.148139E0,2.7060966E0,4.3824654E0,4.555199E-1,0E0,0E0,3.0047207E0,5.3465824E0,0E0,0E0,0E0,0E0,0E0,0E0,0E0,0E0,0E0,0E0,0E0,0E0,0E0],"parents":[2147483647,0,0,1,1,2,2,3,3,4,4,6,6,7,7,8,8,10,10,11,11,12,12,14,14,15,15,16,16,17,17,20,20,21,21],"right_children":[2,4,6,8,10,-1,12,14,16,-1,18,20,22,-1,24,26,28,30,-1,-1,32,34,-1,-1,-1,-1,-1,-1,-1,-1,-1,-1,-1,-1,-1],"split_conditions":[-1.0092634E0,-9.905978E-1,-9.974197E-1,-1.3406141E0,7.227705E-1,7.056072E-2,1E0,-1.3468823E0,-1.3468823E0,-7.071707E-2,-1.1177202E0,-1.1331116E0,2.4885385E0,-6.809875E-2,-9.225236E-2,-1.4181393E0,-1.2410108E0,-1.2224882E0,-5.363037E-2,-5.9629496E-2,2.920267E-1,1.7858794E0,-5.1472586E-2,3.61353E-2,-5.1211894E-2,-1.4393456E-2,2.6100377E-2,1.3112308E-2,-4.6513546E-2,-7.888283E-3,2.3487164E-2,-1.1607266E-2,5.0025606E-3,9.516957E-3,4.62241E-2],"split_indices":[8,5,8,8,7,0,0,5,5,0,8,5,8,0,7,5,8,8,0,0,5,8,0,0,0,0,0,0,0,0,0,0,0,0,0],"split_type":[0,0,0,0,0,0,0,0,0,0,0,0,0,0,0,0,0,0,0,0,0,0,0,0,0,0,0,0,0,0,0,0,0,0,0],"sum_hessian":[2.9750195E2,4.9476116E1,2.4802583E2,3.956699E1,9.909127E0,2.1175423E0,2.459083E2,1.1588065E1,2.7978926E1,5.136532E0,4.772595E0,1.164086E2,1.294997E2,6.605854E0,4.9822116E0,1.600916E1,1.1969767E1,2.8744874E0,1.8981075E0,3.5977316E0,1.1281087E2,1.2803857E2,1.4611212E0,3.1308043E0,1.851407E0,5.689703E0,1.0319456E1,4.188958E0,7.780808E0,1.682511E0,1.1919764E0,4.3425663E1,6.938521E1,1.1807524E2,9.963338E0],"tree_param":{"num_deleted":"0","num_feature":"9","num_nodes":"35","size_leaf_vector":"1"}},{"base_weights":[-5.011882E-2,-8.1158125E-1,1.321993E0,-9.6961623E-1,-6.112704E-1,1.4891818E-1,1.3961724E0,-7.265171E-1,-6.7731075E-2,-3.6181486E-1,-9.9822307E-1,-4.5355186E-2,5.0907654E-1,8.969311E-1,7.1888216E-2,-8.8799113E-1,2.9277764E-2,-4.3267128E-1,5.043009E-2,-1.3859253E0,-5.3973067E-1,9.3979347E-1,-1.884425E-2,-5.5966448E-2,6.529739E-2,-5.282659E-2,-2.0278772E-2,-6.764316E-2,3.551663E-2,-3.0701434E-2,5.7951016E-3,-7.641374E-2,-2.2822775E-2,3.376272E-2,-4.5371346E-2,1.4808518E-2,5.5002153E-2],"categories":[],"categories_nodes":[],"categories_segments":[],"categories_sizes":[],"default_left":[0,0,0,0,0,0,0,0,0,0,0,0,0,0,0,0,0,0,0,0,0,0,0,0,0,0,0,0,0,0,0,0,0,0,0,0,0],"id":13,"left_children":[1,3,5,7,9,11,13,15,-1,17,19,-1,21,23,-1,25,27,29,-1,31,33,35,-1,-1,-1,-1,-1,-1,-1,-1,-1,-1,-1,-1,-1,-1,-1],"loss_changes":[3.0018884E2,5.2551956E0,8.716187E0,8.521027E0,7.764036E0,3.2073305E0,7.107849E-1,7.8863754E0,0E0,5.55848E0,5.0159454E0,0E0,2.6527271E0,9.763875E0,0E0,3.8889809E0,1.2545014E1,5.130684E0,0E0,1.5426025E0,7.9815636E0,1.21753216E-1,0E0,0E0,0E0,0E0,0E0,0E0,0E0,0E0,0E0,0E0,0E0,0E0,0E0,0E0,0E0],"parents":[2147483647,0,0,1,1,2,2,3,3,4,4,5,5,6,6,7,7,9,9,10,10,12,12,13,13,15,15,16,16,17,17,19,19,20,20,21,21],"right_children":[2,4,6,8,10,12,14,16,-1,18,20,-1,22,24,-1,26,28,30,-1,32,34,36,-1,-1,-1,-1,-1,-1,-1,-1,-1,-1,-1,-1,-1,-1,-1],"split_conditions":[1E0,1.2955311E-1,-1.2689697E0,-6.1875266E-1,1.0112457E0,-1.4708836E0,-1.0310285E0,-7.700991E-1,-6.7731075E-2,9.882379E-1,9.679185E-1,-4.5355186E-2,1E0,-9.456796E-1,7.1888216E-2,7.227705E-1,-1.7858358E-1,1E0,5.043009E-2,1.5377934E0,1.0408175E0,-1.3515943E0,-1.884425E-2,-5.5966448E-2,6.529739E-2,-5.282659E-2,-2.0278772E-2,-6.764316E-2,3.551663E-2,-3.0701434E-2,5.7951016E-3,-7.641374E-2,-2.2822775E-2,3.376272E-2,-4.5371346E-2,1.4808518E-2,5.5002153E-2],"split_indices":[1,8,8,8,8,6,8,8,0,8,6,0,0,6,0,7,6,3,0,7,6,6,0,0,0,0,0,0,0,0,0,0,0,0,0,0,0],"split_type":[0,0,0,0,0,0,0,0,0,0,0,0,0,0,0,0,0,0,0,0,0,0,0,0,0,0,0,0,0,0,0,0,0,0,0,0,0],"sum_hessian":[2.8528696E2,1.8373212E2,1.01554825E2,1.0055713E2,8.3174995E1,6.2187533E0,9.533607E1,6.3407513E1,3.7149616E1,5.17491E1,3.1425894E1,1.1953213E0,5.023432E0,9.067001E0,8.6269066E1,5.2101273E1,1.130624E1,4.9855625E1,1.893472E0,1.5931443E1,1.5494451E1,3.3392627E0,1.684169E0,1.2362472E0,7.830754E0,3.772965E1,1.4371624E1,3.4065413E0,7.899699E0,3.7378902E1,1.2476724E1,1.325689E1,2.6745534E0,3.405419E0,1.2089031E1,1.2334481E0,2.1058147E0],"tree_param":{"num_deleted":"0","num_feature":"9","num_nodes":"37","size_leaf_vector":"1"}},{"base_weights":[-1.36092175E-2,-8.309299E-1,1.3178903E0,-1.1300639E0,-6.2305313E-1,-2.616413E-1,6.8751715E-2,-3.451376E-1,-1.2241514E0,-6.850232E-1,5.4514176E-1,-5.3973872E-2,2.269955E-2,-8.178893E-1,3.589536E-2,-1.4081869E0,-9.352103E-1,-2.5178534E-1,-8.5920346E-1,1.11897E0,-1.4320025E-2,-6.0781796E-2,3.0655814E-2,-3.64301E-2,-7.407854E-2,4.657087E-2,-5.5622358E-2,-6.6043764E-2,1.2255578E-3,-5.526454E-2,-1.8124508E-2,6.841466E-2,1.6969414E-2],"categories":[],"categories_nodes":[],"categories_segments":[],"categories_sizes":[],"default_left":[0,0,0,0,0,0,0,0,0,0,0,0,0,0,0,0,0,0,0,0,0,0,0,0,0,0,0,0,0,0,0,0,0],"id":14,"left_children":[1,3,5,7,9,11,-1,13,15,17,19,-1,-1,21,-1,23,25,27,29,31,-1,-1,-1,-1,-1,-1,-1,-1,-1,-1,-1,-1,-1],"loss_changes":[3.0981946E2,1.0264809E1,1.0133972E1,4.827965E0,8.068989E0,3.1946046E0,0E0,5.1114035E0,2.038002E0,7.4347343E0,3.1413975E0,0E0,0E0,4.5581026E0,0E0,7.440796E-1,1.0142897E1,9.038312E0,8.388222E0,2.5512457E-1,0E0,0E0,0E0,0E0,0E0,0E0,0E0,0E0,0E0,0E0,0E0,0E0,0E0],"parents":[2147483647,0,0,1,1,2,2,3,3,4,4,5,5,7,7,8,8,9,9,10,10,13,13,15,15,16,16,17,17,18,18,19,19],"right_children":[2,4,6,8,10,12,-1,14,16,18,20,-1,-1,22,-1,24,26,28,30,32,-1,-1,-1,-1,-1,-1,-1,-1,-1,-1,-1,-1,-1],"split_conditions":[1E0,-9.225236E-2,-1.2934335E0,-1.2498256E0,1.5746512E0,-1.3468823E0,6.8751715E-2,-1.1331116E0,4.264795E-1,-6.1875266E-1,1.717165E0,-5.3973872E-2,2.269955E-2,-2.8130487E-1,3.589536E-2,-1.2919497E0,4.831155E-1,-1.1792877E0,7.908251E-1,1.6459081E0,-1.4320025E-2,-6.0781796E-2,3.0655814E-2,-3.64301E-2,-7.407854E-2,4.657087E-2,-5.5622358E-2,-6.6043764E-2,1.2255578E-3,-5.526454E-2,-1.8124508E-2,6.841466E-2,1.6969414E-2],"split_indices":[1,7,8,8,5,5,0,5,8,8,5,0,0,6,0,6,8,6,5,5,0,0,0,0,0,0,0,0,0,0,0,0,0],"split_type":[0,0,0,0,0,0,0,0,0,0,0,0,0,0,0,0,0,0,0,0,0,0,0,0,0,0,0,0,0,0,0,0,0],"sum_hessian":[2.826857E2,1.7539693E2,1.0728878E2,7.009469E1,1.0530223E2,3.6209986E0,1.0366778E2,8.002446E0,6.2092247E1,1.0039036E2,4.9118743E0,1.4525623E0,2.1684363E0,5.6987457E0,2.3037E0,3.5565716E1,2.6526531E1,2.9488726E1,7.090163E1,2.7017808E0,2.2100935E0,4.577059E0,1.121687E0,4.531309E0,3.1034405E1,1.9312907E0,2.459524E1,5.2795634E0,2.4209162E1,4.659286E1,2.430877E1,1.4749156E0,1.2268653E0],"tree_param":{"num_deleted":"0","num_feature":"9","num_nodes":"33","size_leaf_vector":"1"}},{"base_weights":[-2.9897911E-2,-6.0883995E-2,2.4908604E-2,1.07920505E-1,-2.8079745E-1,-9.8584294E-2,2.8012297E-1,-3.677326E-1,5.3735286E-1,6.322074E-1,-1.7998593E-1,3.1562498E-1,-5.5716926E-1,-2.1512759E-1,-9.18844E-1,5.8838885E-2,-2.3850683E-2,-2.133852E-2,4.7360502E-2,-3.575011E-2,-2.366049E-3,8.736416E-3,3.0585045E-2,-2.3482924E-3,-5.0123483E-2,-4.5466438E-2,-5.6337905E-3,-6.588747E-2,-5.652986E-4],"categories":[],"categories_nodes":[],"categories_segments":[],"categories_sizes":[],"default_left":[0,0,0,0,0,0,0,0,0,0,0,0,0,0,0,0,0,0,0,0,0,0,0,0,0,0,0,0,0],"id":15,"left_children":[1,-1,3,5,7,9,11,13,15,17,19,21,23,25,27,-1,-1,-1,-1,-1,-1,-1,-1,-1,-1,-1,-1,-1,-1],"loss_changes":[1.8135954E1,0E0,6.8019805E0,7.515915E0,4.270438E0,5.85387E0,3.596859E0,4.205579E0,4.3923235E0,3.7041771E0,6.183797E0,4.5254154E0,1.0986347E0,2.9065647E0,3.984703E0,0E0,0E0,0E0,0E0,0E0,0E0,0E0,0E0,0E0,0E0,0E0,0E0,0E0,0E0],"parents":[2147483647,0,0,2,2,3,3,4,4,5,5,6,6,7,7,8,8,9,9,10,10,11,11,12,12,13,13,14,14],"right_children":[2,-1,4,6,8,10,12,14,16,18,20,22,24,26,28,-1,-1,-1,-1,-1,-1,-1,-1,-1,-1,-1,-1,-1,-1],"split_conditions":[-1.3095487E0,-6.0883995E-2,1E0,-7.349771E-2,1.8686296E0,-1.2099454E0,2.031581E0,6.116483E-1,1.1683906E0,-1.4181393E0,-1.0277473E0,8.9501953E-1,1E0,-1.1468635E0,1.4373262E0,5.8838885E-2,-2.3850683E-2,-2.133852E-2,4.7360502E-2,-3.575011E-2,-2.366049E-3,8.736416E-3,3.0585045E-2,-2.3482924E-3,-5.0123483E-2,-4.5466438E-2,-5.6337905E-3,-6.588747E-2,-5.652986E-4],"split_indices":[8,0,4,8,8,8,6,8,6,5,8,6,0,8,8,0,0,0,0,0,0,0,0,0,0,0,0,0,0],"split_type":[0,0,0,0,0,0,0,0,0,0,0,0,0,0,0,0,0,0,0,0,0,0,0,0,0,0,0,0,0],"sum_hessian":[2.771279E2,1.1287359E1,2.6584055E2,2.0957831E2,5.6262245E1,9.549202E1,1.1408629E2,5.1355804E1,4.9064417E0,8.892465E0,8.659955E1,1.1004339E2,4.042905E0,4.1307842E1,1.0047959E1,2.911201E0,1.9952408E0,1.9573654E0,6.9350986E0,1.6334724E1,7.026483E1,7.563861E1,3.4404778E1,2.3993347E0,1.6435703E0,4.2994695E0,3.7008373E1,6.6659555E0,3.382004E0],"tree_param":{"num_deleted":"0","num_feature":"9","num_nodes":"29","size_leaf_vector":"1"}},{"base_weights":[-1.32419765E-2,-6.8678325E-1,4.154513E-2,1.7950287E-2,-1.22962E0,5.7112526E-2,-5.542133E-2,-5.399453E-1,3.168627E-1,-6.7730986E-2,-1.46771595E-2,-1.13970116E-1,1.7164606E-1,-4.499522E-2,3.3863168E-3,5.427149E-1,-1.2806095E-2,-2.643412E-1,1.4822389E-1,1.9967178E-1,-8.272992E-1,3.5713322E-3,4.120377E-2,-3.144193E-2,-4.5806626E-3,-1.7615082E-2,2.2739714E-2,4.936495E-3,2.3760153E-2,2.3433887E-3,-5.5868905E-2],"categories":[],"categories_nodes":[],"categories_segments":[],"categories_sizes":[],"default_left":[0,0,0,0,0,0,0,0,0,0,0,0,0,0,0,0,0,0,0,0,0,0,0,0,0,0,0,0,0,0,0],"id":16,"left_children":[1,3,5,7,9,11,-1,13,15,-1,-1,17,19,-1,-1,21,-1,23,25,27,29,-1,-1,-1,-1,-1,-1,-1,-1,-1,-1],"loss_changes":[1.0295694E1,8.050585E0,4.6864405E0,1.8582482E0,9.9118805E-1,5.030862E0,0E0,9.138837E-1,1.073056E0,0E0,0E0,4.106294E0,4.4651337E0,0E0,0E0,6.7015266E-1,0E0,4.092504E0,6.027899E0,4.1306744E0,1.1645255E0,0E0,0E0,0E0,0E0,0E0,0E0,0E0,0E0,0E0,0E0],"parents":[2147483647,0,0,1,1,2,2,3,3,4,4,5,5,7,7,8,8,11,11,12,12,15,15,17,17,18,18,19,19,20,20],"right_children":[2,4,6,8,10,12,-1,14,16,-1,-1,18,20,-1,-1,22,-1,24,26,28,30,-1,-1,-1,-1,-1,-1,-1,-1,-1,-1],"split_conditions":[-1.3366833E0,-1.7111188E0,3.1678393E0,-2.0507617E0,1E0,-9.225236E-2,-5.542133E-2,-1.3884935E0,-5.976088E-1,-6.7730986E-2,-1.46771595E-2,1E0,2.031581E0,-4.499522E-2,3.3863168E-3,1E0,-1.2806095E-2,-3.939669E-1,-4.7276497E-1,7.657895E-1,2.3037827E-2,3.5713322E-3,4.120377E-2,-3.144193E-2,-4.5806626E-3,-1.7615082E-2,2.2739714E-2,4.936495E-3,2.3760153E-2,2.3433887E-3,-5.5868905E-2],"split_indices":[6,6,7,6,3,7,0,8,8,0,0,3,6,0,0,0,0,6,8,6,8,0,0,0,0,0,0,0,0,0,0],"split_type":[0,0,0,0,0,0,0,0,0,0,0,0,0,0,0,0,0,0,0,0,0,0,0,0,0,0,0,0,0,0,0],"sum_hessian":[2.7723248E2,1.9986547E1,2.5724594E2,9.117177E0,1.0869371E1,2.547477E2,2.4982343E0,2.8993714E0,6.2178054E0,9.194459E0,1.6749127E0,1.021571E2,1.525906E2,1.5187954E0,1.3805761E0,4.497761E0,1.7200449E0,6.491783E1,3.7239265E1,1.4920474E2,3.3858666E0,2.1501126E0,2.3476481E0,2.002328E1,4.489455E1,1.4088444E1,2.3150822E1,1.1019334E2,3.9011406E1,1.0525092E0,2.3333573E0],"tree_param":{"num_deleted":"0","num_feature":"9","num_nodes":"31","size_leaf_vector":"1"}},{"base_weights":[1.6120155E-3,-7.4708366E-1,1.2970183E0,-8.551651E-1,-5.0572246E-1,5.112381E-1,6.667141E-2,-6.862356E-1,-1.0028034E0,-7.094932E-1,-1.8432267E-2,-4.6898093E-2,5.6795906E-2,-9.6062076E-1,-3.934273E-1,-1.1504043E0,-3.6731243E-1,-8.820141E-1,-1.0929837E-1,5.3758323E-1,-5.9184843E-1,-5.7953317E-2,-1.276498E-2,2.2511492E-2,-3.3516612E-2,-7.268203E-2,-3.2863583E-2,5.27659E-3,-4.438011E-2,4.1097337E-3,-4.9994297E-2,2.4163842E-2,-6.049166E-2,2.4879312E-3,4.938617E-2,-1.4841919E-3,-6.4176194E-2],"categories":[],"categories_nodes":[],"categories_segments":[],"categories_sizes":[],"default_left":[0,0,0,0,0,0,0,0,0,0,0,0,0,0,0,0,0,0,0,0,0,0,0,0,0,0,0,0,0,0,0,0,0,0,0,0,0],"id":17,"left_children":[1,3,5,7,9,11,-1,13,15,17,19,-1,-1,21,23,25,27,29,31,33,35,-1,-1,-1,-1,-1,-1,-1,-1,-1,-1,-1,-1,-1,-1,-1,-1],"loss_changes":[2.7035052E2,4.175827E0,2.2393494E0,2.3188705E0,5.6552696E0,6.6267104E0,0E0,4.3941746E0,5.408989E0,4.068878E0,6.012224E0,0E0,0E0,3.898882E0,7.410088E0,6.5188828E0,3.3379545E0,3.61722E0,7.1861353E0,2.056991E0,3.565651E0,0E0,0E0,0E0,0E0,0E0,0E0,0E0,0E0,0E0,0E0,0E0,0E0,0E0,0E0,0E0,0E0],"parents":[2147483647,0,0,1,1,2,2,3,3,4,4,5,5,7,7,8,8,9,9,10,10,13,13,14,14,15,15,16,16,17,17,18,18,19,19,20,20],"right_children":[2,4,6,8,10,12,-1,14,16,18,20,-1,-1,22,24,26,28,30,32,34,36,-1,-1,-1,-1,-1,-1,-1,-1,-1,-1,-1,-1,-1,-1,-1,-1],"split_conditions":[1E0,7.908251E-1,-1.4211798E0,-5.630563E-1,1E0,-6.343132E-1,6.667141E-2,-1.1331116E0,8.983331E-1,8.7679476E-1,4.410577E-1,-4.6898093E-2,5.6795906E-2,1E0,-9.274549E-1,3.6328363E-1,1.4951287E-1,8.6208206E-1,1.1683906E0,9.644437E-2,1E0,-5.7953317E-2,-1.276498E-2,2.2511492E-2,-3.3516612E-2,-7.268203E-2,-3.2863583E-2,5.27659E-3,-4.438011E-2,4.1097337E-3,-4.9994297E-2,2.4163842E-2,-6.049166E-2,2.4879312E-3,4.938617E-2,-1.4841919E-3,-6.4176194E-2],"split_indices":[1,5,6,5,3,5,0,5,6,6,6,0,0,2,6,5,5,5,6,6,0,0,0,0,0,0,0,0,0,0,0,0,0,0,0,0,0],"split_type":[0,0,0,0,0,0,0,0,0,0,0,0,0,0,0,0,0,0,0,0,0,0,0,0,0,0,0,0,0,0,0,0,0,0,0,0,0],"sum_hessian":[2.767516E2,1.756537E2,1.01097885E2,1.1956805E2,5.6085648E1,5.143097E0,9.595479E1,5.8397285E1,6.117076E1,3.9226326E1,1.6859322E1,1.3981081E0,3.744989E0,2.8969652E1,2.9427633E1,4.8983475E1,1.2187288E1,3.0103725E1,9.1226015E0,8.591259E0,8.268062E0,2.210655E1,6.863102E0,7.1172595E0,2.2310375E1,2.912575E1,1.9857723E1,6.802385E0,5.384904E0,3.3121922E0,2.6791533E1,6.294333E0,2.8282688E0,4.6560063E0,3.9352531E0,5.13636E0,3.1317012E0],"tree_param":{"num_deleted":"0","num_feature":"9","num_nodes":"37","size_leaf_vector":"1"}},{"base_weights":[3.2184217E-2,-6.3304204E-1,8.5971326E-2,-2.2347367E-1,-9.5305574E-1,1.0120786E-1,-5.412143E-2,-4.2245768E-2,-2.054011E-2,-2.751233E-1,-1.1162088E0,-4.9788244E-2,1.14752896E-1,-1.8680321E-2,1.5264042E-1,-4.0394664E-2,2.1804964E-2,-6.295037E-2,-1.5061435E-2,1.7624266E-1,-1.09288104E-1,1.675643E-2,-1.24192955E-2,6.5797725E-4,1.4336887E-2,3.2922842E-3,-2.673012E-2],"categories":[],"categories_nodes":[],"categories_segments":[],"categories_sizes":[],"default_left":[0,0,0,0,0,0,0,0,0,0,0,0,0,0,0,0,0,0,0,0,0,0,0,0,0,0,0],"id":18,"left_children":[1,3,5,7,9,11,-1,-1,13,15,17,-1,19,-1,21,-1,-1,-1,-1,23,25,-1,-1,-1,-1,-1,-1],"loss_changes":[1.0130987E1,2.5639095E0,4.763697E0,1.319345E0,9.745474E-1,3.962381E0,0E0,0E0,6.082466E-1,1.7068834E0,6.6961575E-1,0E0,3.5559115E0,0E0,5.778294E-1,0E0,0E0,0E0,0E0,3.6329703E0,4.1992273E0,0E0,0E0,0E0,0E0,0E0,0E0],"parents":[2147483647,0,0,1,1,2,2,3,3,4,4,5,5,8,8,9,9,10,10,12,12,14,14,19,19,20,20],"right_children":[2,4,6,8,10,12,-1,-1,14,16,18,-1,20,-1,22,-1,-1,-1,-1,24,26,-1,-1,-1,-1,-1,-1],"split_conditions":[-1.33834E0,-1.7111188E0,3.1678393E0,-1.5006394E0,-1.4607981E0,-1.3884935E0,-5.412143E-2,-4.2245768E-2,-2.0507617E0,-1.4874516E0,1E0,-4.9788244E-2,1E0,-1.8680321E-2,-5.976088E-1,-4.0394664E-2,2.1804964E-2,-6.295037E-2,-1.5061435E-2,-9.225236E-2,5.407417E-1,1.675643E-2,-1.24192955E-2,6.5797725E-4,1.4336887E-2,3.2922842E-3,-2.673012E-2],"split_indices":[6,6,7,8,8,8,0,0,6,6,3,0,4,0,8,0,0,0,0,7,8,0,0,0,0,0,0],"split_type":[0,0,0,0,0,0,0,0,0,0,0,0,0,0,0,0,0,0,0,0,0,0,0,0,0,0,0],"sum_hessian":[2.8062094E2,2.0186737E1,2.604342E2,9.5993595E0,1.0587378E1,2.5798334E2,2.450856E0,1.5842912E0,8.015068E0,2.5748146E0,8.012563E0,2.2621655E0,2.5572118E2,2.2567887E0,5.75828E0,1.3943778E0,1.1804367E0,6.3543396E0,1.6582232E0,2.0081839E2,5.49028E1,4.0703692E0,1.6879104E0,8.156021E1,1.1925817E2,3.948787E1,1.5414932E1],"tree_param":{"num_deleted":"0","num_feature":"9","num_nodes":"27","size_leaf_vector":"1"}},{"base_weights":[-2.1203328E-2,-7.493774E-1,1.2487185E0,-8.225102E-1,-4.4571635E-1,4.6301883E-1,6.5157E-2,-7.5708526E-1,-1.0699567E0,2.163341E-1,-9.4087464E-1,1.3284309E-1,4.5918614E-2,-7.912021E-1,2.3011494E-2,-1.2740662E0,-6.35783E-1,-1.503506E-1,8.0926865E-1,-1.0296448E0,2.3189874E-3,-3.6881593E-1,4.2295985E-2,-5.4412354E-2,-3.594689E-2,-7.055143E-2,-3.6558457E-2,-5.971343E-2,-1.0183404E-2,1.1704235E-2,-5.511719E-2,-3.3835599E-3,5.9848424E-2,-2.4056194E-2,-5.5472787E-2,9.0059815E-3,-4.6478476E-2],"categories":[],"categories_nodes":[],"categories_segments":[],"categories_sizes":[],"default_left":[0,0,0,0,0,0,0,0,0,0,0,0,0,0,0,0,0,0,0,0,0,0,0,0,0,0,0,0,0,0,0,0,0,0,0,0,0],"id":19,"left_children":[1,3,5,7,9,11,-1,13,15,17,19,21,-1,23,-1,25,27,29,31,33,-1,35,-1,-1,-1,-1,-1,-1,-1,-1,-1,-1,-1,-1,-1,-1,-1],"loss_changes":[2.5343855E2,3.5013046E0,3.6676636E0,1.4432068E0,1.2001171E1,1.0840203E0,0E0,5.077812E0,1.5547543E0,3.6464949E0,1.8685474E0,2.3935862E0,0E0,1.5954056E0,0E0,2.439251E-1,2.297811E0,4.2327642E0,2.2404542E0,3.0260277E-1,0E0,1.4332695E0,0E0,0E0,0E0,0E0,0E0,0E0,0E0,0E0,0E0,0E0,0E0,0E0,0E0,0E0,0E0],"parents":[2147483647,0,0,1,1,2,2,3,3,4,4,5,5,7,7,8,8,9,9,10,10,11,11,13,13,15,15,16,16,17,17,18,18,19,19,21,21],"right_children":[2,4,6,8,10,12,-1,14,16,18,20,22,-1,24,-1,26,28,30,32,34,-1,36,-1,-1,-1,-1,-1,-1,-1,-1,-1,-1,-1,-1,-1,-1,-1],"split_conditions":[1E0,8.983331E-1,-1.273725E0,4.0295142E-1,1.2412896E0,1E0,6.5157E-2,3.8472667E-1,7.227705E-1,1.1037756E0,2.3528163E0,1E0,4.5918614E-2,-1.1792877E0,2.3011494E-2,7.657895E-1,1E0,1.0408175E0,7.227705E-1,1.3705196E0,2.3189874E-3,-1.7111188E0,4.2295985E-2,-5.4412354E-2,-3.594689E-2,-7.055143E-2,-3.6558457E-2,-5.971343E-2,-1.0183404E-2,1.1704235E-2,-5.511719E-2,-3.3835599E-3,5.9848424E-2,-2.4056194E-2,-5.5472787E-2,9.0059815E-3,-4.6478476E-2],"split_indices":[1,6,6,6,6,4,0,6,7,6,7,3,0,6,0,6,0,6,7,6,0,6,0,0,0,0,0,0,0,0,0,0,0,0,0,0,0],"split_type":[0,0,0,0,0,0,0,0,0,0,0,0,0,0,0,0,0,0,0,0,0,0,0,0,0,0,0,0,0,0,0,0,0,0,0,0,0],"sum_hessian":[2.720574E2,1.7317096E2,9.888645E1,1.3818282E2,3.498815E1,7.0215936E0,9.186486E1,1.1249795E2,2.568487E1,1.5212033E1,1.9776117E1,4.8190484E0,2.202545E0,1.097715E2,2.726444E0,1.6155527E1,9.529343E0,9.860498E0,5.3515344E0,1.8105227E1,1.6708912E0,3.1122916E0,1.706757E0,1.8728413E1,9.104309E1,1.1623957E1,4.53157E0,3.3874583E0,6.1418843E0,7.5612245E0,2.299274E0,1.8936756E0,3.457859E0,3.1924682E0,1.4912758E1,1.9157281E0,1.1965635E0],"tree_param":{"num_deleted":"0","num_feature":"9","num_nodes":"37","size_leaf_vector":"1"}},{"base_weights":[-1.1868455E-2,-7.5793195E-1,1.2457867E0,-6.462954E-2,-7.147875E-1,5.484992E-1,6.3986674E-2,-1.8823355E-1,-7.932283E-1,-4.650644E-2,5.6272298E-2,-4.3268606E-1,5.1513344E-1,-1.0334079E0,-6.941125E-1,-4.7118556E-2,-1.5245631E-4,3.1324413E-3,5.8731236E-2,-3.6257442E-2,-7.111645E-2,3.0175677E-2,-3.7415247E-2],"categories":[],"categories_nodes":[],"categories_segments":[],"categories_sizes":[],"default_left":[0,0,0,0,0,0,0,0,0,0,0,0,0,0,0,0,0,0,0,0,0,0,0],"id":20,"left_children":[1,3,5,-1,7,9,-1,11,13,-1,-1,15,17,19,21,-1,-1,-1,-1,-1,-1,-1,-1],"loss_changes":[2.6031912E2,3.092781E0,1.7433777E0,0E0,6.5981293E0,6.6310816E0,0E0,4.0901666E0,2.660019E0,0E0,0E0,3.77115E0,1.7936901E0,3.6919632E0,7.727989E0,0E0,0E0,0E0,0E0,0E0,0E0,0E0,0E0],"parents":[2147483647,0,0,1,1,2,2,4,4,5,5,7,7,8,8,11,11,12,12,13,13,14,14],"right_children":[2,4,6,-1,8,10,-1,12,14,-1,-1,16,18,20,22,-1,-1,-1,-1,-1,-1,-1,-1],"split_conditions":[1E0,-1.3366833E0,-1.4708836E0,-6.462954E-2,-8.7443745E-1,-6.343132E-1,6.3986674E-2,1E0,-1.7858358E-1,-4.650644E-2,5.6272298E-2,-1.0898207E0,8.6208206E-1,-4.701795E-1,-1.4379089E-1,-4.7118556E-2,-1.5245631E-4,3.1324413E-3,5.8731236E-2,-3.6257442E-2,-7.111645E-2,3.0175677E-2,-3.7415247E-2],"split_indices":[1,6,6,0,6,5,0,3,6,0,0,6,5,6,6,0,0,0,0,0,0,0,0],"split_type":[0,0,0,0,0,0,0,0,0,0,0,0,0,0,0,0,0,0,0,0,0,0,0],"sum_hessian":[2.7543344E2,1.731281E2,1.0230534E2,1.0765037E1,1.6236307E2,5.5459385E0,9.675941E1,2.1492031E1,1.4087103E2,1.3847849E0,4.1611533E0,1.6234594E1,5.2574353E0,3.8397976E1,1.0247306E2,6.8796935E0,9.354901E0,3.7675035E0,1.489932E0,2.3018225E1,1.537975E1,3.701637E0,9.877142E1],"tree_param":{"num_deleted":"0","num_feature":"9","num_nodes":"23","size_leaf_vector":"1"}},{"base_weights":[3.9020486E-2,-3.613664E-1,1.171399E-1,9.507318E-2,-8.1040585E-1,1.9231491E-1,-1.6024011E-1,-9.2701954E-1,5.567726E-1,-1.3493223E-1,-6.879009E-2,5.955075E-2,1.7302807E-1,-2.7932912E-1,4.5922515E-1,-5.8218934E-2,-2.8842809E-3,8.69314E-1,-1.3884853E-1,-4.3686864E-1,5.2774686E-1,-6.5415525E-1,2.0085548E-1,-4.3214317E-2,-6.29038E-2,-4.0380426E-2,8.0095184E-1,5.187152E-2,1.6192187E-2,-2.3714907E-2,3.4921426E-2,2.6944498E-2,-4.6954907E-2,-1.3925503E-2,5.8770347E-2,-5.056066E-2,-4.3198527E-3,1.0635723E-2,-3.9752644E-2,5.773577E-3,-3.823208E-2,5.083377E-2,-6.240552E-3],"categories":[],"categories_nodes":[],"categories_segments":[],"categories_sizes":[],"default_left":[0,0,0,0,0,0,0,0,0,0,0,0,0,0,0,0,0,0,0,0,0,0,0,0,0,0,0,0,0,0,0,0,0,0,0,0,0,0,0,0,0,0,0],"id":21,"left_children":[1,3,5,7,9,11,13,15,17,19,-1,-1,21,23,25,-1,-1,27,29,31,33,35,37,39,-1,-1,41,-1,-1,-1,-1,-1,-1,-1,-1,-1,-1,-1,-1,-1,-1,-1,-1],"loss_changes":[8.543166E0,9.221368E0,4.7885866E0,1.1379425E1,8.443601E0,3.2604713E0,3.7576532E0,1.4883142E0,3.704072E0,2.5123506E0,0E0,0E0,4.2224617E0,9.625446E0,4.2448316E0,0E0,0E0,7.195444E-1,2.0085545E0,4.6134768E0,2.4278288E0,1.1329002E0,2.208921E0,4.0700517E0,0E0,0E0,1.5343518E0,0E0,0E0,0E0,0E0,0E0,0E0,0E0,0E0,0E0,0E0,0E0,0E0,0E0,0E0,0E0,0E0],"parents":[2147483647,0,0,1,1,2,2,3,3,4,4,5,5,6,6,7,7,8,8,9,9,12,12,13,13,14,14,17,17,18,18,19,19,20,20,21,21,22,22,23,23,26,26],"right_children":[2,4,6,8,10,12,14,16,18,20,-1,-1,22,24,26,-1,-1,28,30,32,34,36,38,40,-1,-1,42,-1,-1,-1,-1,-1,-1,-1,-1,-1,-1,-1,-1,-1,-1,-1,-1],"split_conditions":[-1.0277473E0,-1.3468823E0,1E0,-1.3095487E0,-1.2224882E0,-9.974197E-1,1.4321374E0,1E0,1E0,-1.2498256E0,-6.879009E-2,5.955075E-2,-1.2043686E0,6.116483E-1,1.4373262E0,-5.8218934E-2,-2.8842809E-3,1E0,-1.4181393E0,-1.4607981E0,7.227705E-1,1E0,3.1678393E0,1.5377934E0,-6.29038E-2,-4.0380426E-2,2.299467E0,5.187152E-2,1.6192187E-2,-2.3714907E-2,3.4921426E-2,2.6944498E-2,-4.6954907E-2,-1.3925503E-2,5.8770347E-2,-5.056066E-2,-4.3198527E-3,1.0635723E-2,-3.9752644E-2,5.773577E-3,-3.823208E-2,5.083377E-2,-6.240552E-3],"split_indices":[8,5,4,8,8,8,5,3,3,8,0,0,5,8,8,0,0,4,5,8,7,0,7,7,0,0,8,0,0,0,0,0,0,0,0,0,0,0,0,0,0,0,0],"split_type":[0,0,0,0,0,0,0,0,0,0,0,0,0,0,0,0,0,0,0,0,0,0,0,0,0,0,0,0,0,0,0,0,0,0,0,0,0,0,0,0,0,0,0],"sum_hessian":[2.7078333E2,4.3615284E1,2.2716805E2,2.2020334E1,2.1594952E1,1.7897047E2,4.8197563E1,6.5382843E0,1.548205E1,1.04040165E1,1.1190935E1,2.2397604E0,1.7673071E2,4.0886436E1,7.3111258E0,4.869379E0,1.6689051E0,1.0510158E1,4.971892E0,7.381526E0,3.0224903E0,5.019388E0,1.7171133E2,3.378116E1,7.10528E0,1.2635678E0,6.0475583E0,7.344615E0,3.1655428E0,3.859237E0,1.1126552E0,2.4834838E0,4.898042E0,1.6002952E0,1.4221951E0,2.6019697E0,2.4174182E0,1.7046786E2,1.2434715E0,2.8378857E1,5.402301E0,4.825018E0,1.2225401E0],"tree_param":{"num_deleted":"0","num_feature":"9","num_nodes":"43","size_leaf_vector":"1"}},{"base_weights":[1.6146934E-2,-3.9840165E-1,6.201471E-2,-8.3786744E-1,-4.684985E-2,5.863902E-1,1.4656885E-2,-2.440678E-1,-6.1708894E-2,4.8368618E-1,-4.4713554E-1,8.305355E-1,-1.1477076E-2,-1.8759921E-1,9.311136E-2,-4.715258E-2,2.5009422E-2,4.45644E-2,4.1797478E-2,-7.721398E-1,2.471258E-2,2.3981956E-1,9.893895E-1,-4.345712E-2,3.1303602E-1,-2.8378341E-2,-8.544886E-1,6.9060206E-1,5.8894902E-2,4.356868E-2,-4.42928E-2,-4.5306806E-2,-2.1606898E-3,-2.2091454E-2,4.6466455E-2,6.732144E-2,1.8617839E-2,-8.019054E-3,2.4332296E-2,-5.406629E-3,3.9929274E-2,-5.3084996E-2,1.1193012E-2,-1.5940117E-2,4.859821E-2,5.739662E-3,-1.159058E-2],"categories":[],"categories_nodes":[],"categories_segments":[],"categories_sizes":[],"default_left":[0,0,0,0,0,0,0,0,0,0,0,0,0,0,0,0,0,0,0,0,0,0,0,0,0,0,0,0,0,0,0,0,0,0,0,0,0,0,0,0,0,0,0,0,0,0,0],"id":22,"left_children":[1,3,5,7,9,11,13,15,-1,17,19,21,23,25,27,-1,-1,29,-1,31,-1,33,35,-1,37,39,41,43,45,-1,-1,-1,-1,-1,-1,-1,-1,-1,-1,-1,-1,-1,-1,-1,-1,-1,-1],"loss_changes":[5.038387E0,4.039862E0,5.9085526E0,2.4462433E0,3.5563424E0,2.8866997E0,3.5014818E0,3.5512416E0,0E0,1.0832813E0,3.2833023E0,1.0773373E0,2.1373158E0,6.5268564E0,3.2072103E0,0E0,0E0,4.064998E0,0E0,6.8756294E-1,0E0,2.4264116E0,1.8604326E0,0E0,5.3808707E-1,3.439432E0,2.8870192E0,2.727291E0,2.4861367E0,0E0,0E0,0E0,0E0,0E0,0E0,0E0,0E0,0E0,0E0,0E0,0E0,0E0,0E0,0E0,0E0,0E0,0E0],"parents":[2147483647,0,0,1,1,2,2,3,3,4,4,5,5,6,6,7,7,9,9,10,10,11,11,12,12,13,13,14,14,17,17,19,19,21,21,22,22,24,24,25,25,26,26,27,27,28,28],"right_children":[2,4,6,8,10,12,14,16,-1,18,20,22,24,26,28,-1,-1,30,-1,32,-1,34,36,-1,38,40,42,44,46,-1,-1,-1,-1,-1,-1,-1,-1,-1,-1,-1,-1,-1,-1,-1,-1,-1,-1],"split_conditions":[-1.1792877E0,-4.9179938E-1,-9.241413E-1,-1.4607981E0,-6.04948E-1,1E0,-1.7858358E-1,-1.5006394E0,-6.1708894E-2,6.9990424E-3,1E0,-1.0898207E0,-7.055701E-1,-3.2935193E-1,-1.2887974E-1,-4.715258E-2,2.5009422E-2,-3.4928554E-1,4.1797478E-2,-1.2372755E0,2.471258E-2,1E0,-1.006981E0,-4.345712E-2,-9.225236E-2,1.5033942E0,8.652192E-1,1E0,1.3705196E0,4.356868E-2,-4.42928E-2,-4.5306806E-2,-2.1606898E-3,-2.2091454E-2,4.6466455E-2,6.732144E-2,1.8617839E-2,-8.019054E-3,2.4332296E-2,-5.406629E-3,3.9929274E-2,-5.3084996E-2,1.1193012E-2,-1.5940117E-2,4.859821E-2,5.739662E-3,-1.159058E-2],"split_indices":[6,5,6,8,8,2,6,8,0,5,3,6,5,6,6,0,0,5,0,6,0,3,6,0,7,5,8,0,6,0,0,0,0,0,0,0,0,0,0,0,0,0,0,0,0,0,0],"split_type":[0,0,0,0,0,0,0,0,0,0,0,0,0,0,0,0,0,0,0,0,0,0,0,0,0,0,0,0,0,0,0,0,0,0,0,0,0,0,0,0,0,0,0,0,0,0,0],"sum_hessian":[2.6267776E2,2.54029E1,2.3727487E2,1.0675008E1,1.4727892E1,1.8711151E1,2.185637E2,4.91965E0,5.755358E0,6.2439065E0,8.483985E0,1.3009447E1,5.701705E0,6.0696526E1,1.5786719E2,2.3992438E0,2.520406E0,3.2807384E0,2.9631684E0,6.4403167E0,2.0436683E0,3.2889214E0,9.720526E0,1.104443E0,4.597262E0,4.983976E1,1.0856766E1,7.5118184E0,1.5035536E2,1.7706922E0,1.5100461E0,5.234891E0,1.2054257E0,1.8345244E0,1.454397E0,5.408724E0,4.3118014E0,1.2539799E0,3.343282E0,4.6248676E1,3.5910842E0,9.119783E0,1.7369827E0,1.608425E0,5.9033933E0,1.26614494E2,2.3740871E1],"tree_param":{"num_deleted":"0","num_feature":"9","num_nodes":"47","size_leaf_vector":"1"}},{"base_weights":[2.6775904E-2,-5.847606E-1,1.199222E0,-7.078843E-1,-3.8580358E-1,4.7914135E-1,6.2457066E-2,-6.013518E-1,-1.0296493E0,-5.8112558E-2,-3.1580725E-1,-4.3747637E-1,5.3910084E-2,-9.1099256E-1,-4.1979933E-1,-1.1205968E0,1.2778941E-2,3.7168688E-1,-5.061112E-1,-4.3350033E-2,7.5188293E-3,6.4300294E-3,-5.762524E-2,-2.265083E-3,-3.7605178E-2,-2.4554256E-2,-6.0460757E-2,-2.3898808E-2,4.765168E-2,-4.259264E-2,-1.8151697E-2],"categories":[],"categories_nodes":[],"categories_segments":[],"categories_sizes":[],"default_left":[0,0,0,0,0,0,0,0,0,0,0,0,0,0,0,0,0,0,0,0,0,0,0,0,0,0,0,0,0,0,0],"id":23,"left_children":[1,3,5,7,9,11,-1,13,15,-1,17,19,-1,21,23,25,-1,27,29,-1,-1,-1,-1,-1,-1,-1,-1,-1,-1,-1,-1],"loss_changes":[1.9646007E2,4.138878E0,2.7775269E0,3.153473E0,3.494339E0,4.705929E0,0E0,4.400854E0,3.3221588E0,0E0,8.894571E0,1.0795442E0,0E0,7.8298283E0,6.8718204E0,7.6963615E-1,0E0,7.8665533E0,2.2899237E0,0E0,0E0,0E0,0E0,0E0,0E0,0E0,0E0,0E0,0E0,0E0,0E0],"parents":[2147483647,0,0,1,1,2,2,3,3,4,4,5,5,7,7,8,8,10,10,11,11,13,13,14,14,15,15,17,17,18,18],"right_children":[2,4,6,8,10,12,-1,14,16,-1,18,20,-1,22,24,26,-1,28,30,-1,-1,-1,-1,-1,-1,-1,-1,-1,-1,-1,-1],"split_conditions":[1E0,5.770544E-1,-1.3515943E0,1E0,-1.1328975E0,-6.343132E-1,6.2457066E-2,-9.225236E-2,5.0579745E-1,-5.8112558E-2,-5.8118474E-1,-1.4708836E0,5.3910084E-2,-1.2107668E0,-5.630563E-1,-1.3468823E0,1.2778941E-2,-9.225236E-2,3.3486165E-2,-4.3350033E-2,7.5188293E-3,6.4300294E-3,-5.762524E-2,-2.265083E-3,-3.7605178E-2,-2.4554256E-2,-6.0460757E-2,-2.3898808E-2,4.765168E-2,-4.259264E-2,-1.8151697E-2],"split_indices":[1,5,6,4,6,5,0,7,5,0,6,6,0,6,5,5,0,7,6,0,0,0,0,0,0,0,0,0,0,0,0],"split_type":[0,0,0,0,0,0,0,0,0,0,0,0,0,0,0,0,0,0,0,0,0,0,0,0,0,0,0,0,0,0,0],"sum_hessian":[2.7202728E2,1.791077E2,9.291959E1,1.0905902E2,7.004867E1,6.711109E0,8.620848E1,8.4087555E1,2.4971466E1,4.5022416E0,6.5546425E1,2.7591233E0,3.9519858E0,2.9594994E1,5.4492565E1,2.3440804E1,1.5306634E0,1.4003631E1,5.1542793E1,1.3198755E0,1.439248E0,5.6673427E0,2.3927652E1,2.6154024E1,2.833854E1,3.6998744E0,1.9740929E1,5.761201E0,8.242429E0,1.3636597E1,3.7906197E1],"tree_param":{"num_deleted":"0","num_feature":"9","num_nodes":"31","size_leaf_vector":"1"}},{"base_weights":[2.7506417E-3,-5.920707E-1,1.1584723E0,-7.9206824E-1,-3.8977766E-1,-6.6287434E-1,1.222899E0,-4.943916E-1,-1.2688651E0,-4.900127E-2,-5.3540367E-1,-5.1309194E-2,-5.735214E-4,7.1473855E-1,6.406236E-2,-9.0230525E-1,-1.2584463E-1,-6.9950825E-1,-6.708613E-2,-3.078135E-1,5.889302E-1,-9.8236006E-1,-3.1382343E-1,5.3988602E-2,-2.8988386E-2,-5.0530862E-2,-2.4664106E-2,4.359912E-2,-1.4256242E-2,-5.568586E-2,1.8006386E-2,3.0117286E-2,-2.7599355E-2,-5.2118987E-2,6.1701667E-2,-6.035009E-2,-7.5897956E-3,4.077915E-3,-2.5532722E-2],"categories":[],"categories_nodes":[],"categories_segments":[],"categories_sizes":[],"default_left":[0,0,0,0,0,0,0,0,0,0,0,0,0,0,0,0,0,0,0,0,0,0,0,0,0,0,0,0,0,0,0,0,0,0,0,0,0,0,0],"id":24,"left_children":[1,3,5,7,9,11,13,15,17,19,21,-1,-1,23,-1,25,27,29,-1,31,33,35,37,-1,-1,-1,-1,-1,-1,-1,-1,-1,-1,-1,-1,-1,-1,-1,-1],"loss_changes":[1.7883267E2,6.639923E0,1.1182899E1,1.1493027E1,4.3087654E0,8.5639405E-1,1.6260071E0,8.036345E0,3.965187E-1,4.6810184E0,5.7428246E0,0E0,0E0,5.866903E0,0E0,6.3425636E-1,4.959758E0,2.9206257E0,0E0,4.7871785E0,9.925279E0,3.5075989E0,3.3349924E0,0E0,0E0,0E0,0E0,0E0,0E0,0E0,0E0,0E0,0E0,0E0,0E0,0E0,0E0,0E0,0E0],"parents":[2147483647,0,0,1,1,2,2,3,3,4,4,5,5,6,6,7,7,8,8,9,9,10,10,13,13,15,15,16,16,17,17,19,19,20,20,21,21,22,22],"right_children":[2,4,6,8,10,12,14,16,18,20,22,-1,-1,24,-1,26,28,30,-1,32,34,36,38,-1,-1,-1,-1,-1,-1,-1,-1,-1,-1,-1,-1,-1,-1,-1,-1],"split_conditions":[1E0,8.353757E-2,-1.2934335E0,-6.1875266E-1,4.831155E-1,-1.3468823E0,-1.0310285E0,-1.1331116E0,-6.343132E-1,1E0,9.3333894E-1,-5.1309194E-2,-5.735214E-4,-1.2043686E0,6.406236E-2,1E0,-1.2410108E0,1E0,-6.708613E-2,1.538229E-1,2.4779555E-1,1E0,1.2183666E0,5.3988602E-2,-2.8988386E-2,-5.0530862E-2,-2.4664106E-2,4.359912E-2,-1.4256242E-2,-5.568586E-2,1.8006386E-2,3.0117286E-2,-2.7599355E-2,-5.2118987E-2,6.1701667E-2,-6.035009E-2,-7.5897956E-3,4.077915E-3,-2.5532722E-2],"split_indices":[1,8,8,8,8,5,8,5,5,3,5,0,0,5,0,2,8,2,0,8,8,2,5,0,0,0,0,0,0,0,0,0,0,0,0,0,0,0,0],"split_type":[0,0,0,0,0,0,0,0,0,0,0,0,0,0,0,0,0,0,0,0,0,0,0,0,0,0,0,0,0,0,0,0,0,0,0,0,0,0,0],"sum_hessian":[2.5814218E2,1.7074939E2,8.739278E1,8.439581E1,8.635358E1,2.6683867E0,8.4724396E1,5.3211433E1,3.1184381E1,2.6253885E1,6.009969E1,1.3436482E0,1.3247385E0,1.0090929E1,7.463346E1,2.4569376E1,2.8642057E1,4.7404494E0,2.6443932E1,1.9044792E1,7.209093E0,1.8781502E1,4.1318184E1,8.000715E0,2.090213E0,1.8262531E1,6.3068457E0,3.3267539E0,2.5315304E1,3.3715007E0,1.3689486E0,3.7182205E0,1.5326571E1,1.8684361E0,5.3406568E0,1.4426384E1,4.3551188E0,1.39273815E1,2.7390804E1],"tree_param":{"num_deleted":"0","num_feature":"9","num_nodes":"39","size_leaf_vector":"1"}},{"base_weights":[-2.0704301E-2,-6.575238E-1,2.3917556E-2,-9.788239E-1,-2.282189E-1,-5.7012343E-1,4.867488E-2,-6.0743093E-2,-1.6264868E-1,3.5223998E-2,-6.6793525E-1,-4.76426E-2,-3.4281713E-1,5.4991317E-1,1.6352799E-2,-3.49105E-2,2.3560386E-2,-4.839058E-2,-1.762005E-1,8.904447E-3,-4.717943E-1,-3.702146E-2,7.223603E-1,-5.802996E-1,6.256561E-2,3.4693357E-2,-4.134171E-2,-1.4988546E-2,-3.4475174E-2,4.6230786E-2,-1.8626414E-2,5.6772227E-3,-4.5168933E-2,2.3500226E-2,-3.788499E-4],"categories":[],"categories_nodes":[],"categories_segments":[],"categories_sizes":[],"default_left":[0,0,0,0,0,0,0,0,0,0,0,0,0,0,0,0,0,0,0,0,0,0,0,0,0,0,0,0,0,0,0,0,0,0,0],"id":25,"left_children":[1,3,5,7,9,11,13,-1,15,-1,17,-1,19,21,23,-1,-1,-1,25,-1,27,-1,29,31,33,-1,-1,-1,-1,-1,-1,-1,-1,-1,-1],"loss_changes":[7.426067E0,2.1368842E0,3.6260579E0,1.6292343E0,4.0093565E0,5.317879E-1,3.8112345E0,0E0,1.4430687E0,0E0,7.698777E-1,0E0,6.0488874E-1,3.7065382E0,6.1726003E0,0E0,0E0,0E0,2.633423E0,0E0,3.6294937E-2,0E0,3.2408738E0,3.710598E0,5.932296E0,0E0,0E0,0E0,0E0,0E0,0E0,0E0,0E0,0E0,0E0],"parents":[2147483647,0,0,1,1,2,2,3,3,4,4,5,5,6,6,8,8,10,10,12,12,13,13,14,14,18,18,20,20,22,22,23,23,24,24],"right_children":[2,4,6,8,10,12,14,-1,16,-1,18,-1,20,22,24,-1,-1,-1,26,-1,28,-1,30,32,34,-1,-1,-1,-1,-1,-1,-1,-1,-1,-1],"split_conditions":[-1.33834E0,6.9990424E-3,-1.4181393E0,1E0,-6.04948E-1,1E0,-1.3468823E0,-6.0743093E-2,-1.4708836E0,3.5223998E-2,-1.8498345E-1,-4.76426E-2,-5.596464E-1,-8.4130156E-1,-1.0277473E0,-3.49105E-2,2.3560386E-2,-4.839058E-2,-1.4440435E-1,8.904447E-3,1.2595143E0,-3.702146E-2,6.928905E-1,-1.2410108E0,-7.212683E-1,3.4693357E-2,-4.134171E-2,-1.4988546E-2,-3.4475174E-2,4.6230786E-2,-1.8626414E-2,5.6772227E-3,-4.5168933E-2,2.3500226E-2,-3.788499E-4],"split_indices":[6,5,5,4,8,3,5,0,6,0,8,0,6,6,8,0,0,0,8,0,6,0,6,8,8,0,0,0,0,0,0,0,0,0,0],"split_type":[0,0,0,0,0,0,0,0,0,0,0,0,0,0,0,0,0,0,0,0,0,0,0,0,0,0,0,0,0,0,0,0,0,0,0],"sum_hessian":[2.597799E2,1.611138E1,2.4366853E2,8.482724E0,7.6286554E0,8.867534E0,2.3480101E2,6.2009325E0,2.2817922E0,2.251273E0,5.3773828E0,2.1147976E0,6.752736E0,1.3253733E1,2.2154727E2,1.1817633E0,1.1000289E0,2.7389321E0,2.6384504E0,1.2645918E0,5.4881444E0,1.1741856E0,1.2079547E1,1.5095288E1,2.0645198E2,1.1004338E0,1.5380166E0,4.3935246E0,1.09462E0,1.0327328E1,1.752219E0,5.0018578E0,1.009343E1,2.948443E1,1.7696756E2],"tree_param":{"num_deleted":"0","num_feature":"9","num_nodes":"35","size_leaf_vector":"1"}},{"base_weights":[-3.9695747E-2,-6.231811E-1,1.1716443E0,-8.295098E-1,-4.8902377E-1,-4.5134507E-2,1.2221467E0,-1.727019E-1,-9.1272604E-1,-5.674402E-1,7.5759685E-1,3.289398E-1,6.2390488E-2,-6.672014E-1,4.723488E-2,-9.490088E-1,1.5478238E-2,-4.062228E-1,-1.0665795E0,6.337553E-2,-1.0037761E-2,-2.1334045E-2,4.4793997E-2,-5.3857666E-2,3.831636E-2,-5.9305042E-2,-3.836995E-2,6.416816E-3,-3.278732E-2,-6.318342E-2,-5.006467E-6],"categories":[],"categories_nodes":[],"categories_segments":[],"categories_sizes":[],"default_left":[0,0,0,0,0,0,0,0,0,0,0,0,0,0,0,0,0,0,0,0,0,0,0,0,0,0,0,0,0,0,0],"id":26,"left_children":[1,3,5,7,9,-1,11,13,15,17,19,21,-1,23,-1,25,-1,27,29,-1,-1,-1,-1,-1,-1,-1,-1,-1,-1,-1,-1],"loss_changes":[1.7602489E2,4.24572E0,9.585991E0,3.382698E0,1.0622301E1,0E0,1.4112854E0,5.3365154E0,2.8329964E0,7.5063457E0,3.4790733E0,1.9148767E0,0E0,4.639698E0,0E0,1.4946632E0,0E0,1.0247149E1,4.9336414E0,0E0,0E0,0E0,0E0,0E0,0E0,0E0,0E0,0E0,0E0,0E0,0E0],"parents":[2147483647,0,0,1,1,2,2,3,3,4,4,6,6,7,7,8,8,9,9,10,10,11,11,13,13,15,15,17,17,18,18],"right_children":[2,4,6,8,10,-1,12,14,16,18,20,22,-1,24,-1,26,-1,28,30,-1,-1,-1,-1,-1,-1,-1,-1,-1,-1,-1,-1],"split_conditions":[1E0,-9.225236E-2,-1.423908E0,-1.2498256E0,1.5746512E0,-4.5134507E-2,-1.2689697E0,-1.1331116E0,2.3881586E0,1.5377934E0,1.717165E0,1E0,6.2390488E-2,-2.8130487E-1,4.723488E-2,-4.2054245E-1,1.5478238E-2,-5.630563E-1,1.1501659E0,6.337553E-2,-1.0037761E-2,-2.1334045E-2,4.4793997E-2,-5.3857666E-2,3.831636E-2,-5.9305042E-2,-3.836995E-2,6.416816E-3,-3.278732E-2,-6.318342E-2,-5.006467E-6],"split_indices":[1,7,8,8,5,0,8,5,8,7,5,3,0,6,0,5,0,5,6,0,0,0,0,0,0,0,0,0,0,0,0],"split_type":[0,0,0,0,0,0,0,0,0,0,0,0,0,0,0,0,0,0,0,0,0,0,0,0,0,0,0,0,0,0,0],"sum_hessian":[2.4701207E2,1.6703784E2,7.997422E1,6.3773552E1,1.0326429E2,1.49974E0,7.847448E1,7.5172057E0,5.6256348E1,9.766563E1,5.598663E0,2.5776181E0,7.5896866E1,5.490369E0,2.0268369E0,5.4851696E1,1.4046502E0,7.519287E1,2.247276E1,3.443744E0,2.1549187E0,1.210995E0,1.3666233E0,4.462741E0,1.0276281E0,2.139259E1,3.3459106E1,2.4083658E1,5.110921E1,1.8811445E1,3.661313E0],"tree_param":{"num_deleted":"0","num_feature":"9","num_nodes":"31","size_leaf_vector":"1"}},{"base_weights":[4.1973695E-2,-5.418437E-1,1.1440299E0,-4.9614564E-1,-6.501093E-2,5.4212534E-1,6.2246304E-2,-1.0581671E0,-4.3483227E-1,-1.0576515E-1,5.6249E-2,-2.2646216E-1,-6.1621454E-2,3.3136287E-1,-4.8155674E-1,2.3151718E-1,-5.380367E-2,-3.953409E-2,3.0921875E-2,3.500313E-2,-4.2423945E-2,-3.4336064E-2,-1.52326245E-2,3.108283E-2,-2.6298115E-2],"categories":[],"categories_nodes":[],"categories_segments":[],"categories_sizes":[],"default_left":[0,0,0,0,0,0,0,0,0,0,0,0,0,0,0,0,0,0,0,0,0,0,0,0,0],"id":27,"left_children":[1,3,5,7,-1,9,-1,11,13,15,-1,17,-1,19,21,23,-1,-1,-1,-1,-1,-1,-1,-1,-1],"loss_changes":[1.6487277E2,5.161949E0,4.713516E0,5.0414963E0,0E0,5.598124E0,0E0,1.8958817E0,5.3738003E0,2.797048E0,0E0,2.312252E0,0E0,4.4933386E0,4.787981E0,2.2774704E0,0E0,0E0,0E0,0E0,0E0,0E0,0E0,0E0,0E0],"parents":[2147483647,0,0,1,1,2,2,3,3,5,5,7,7,8,8,9,9,11,11,13,13,14,14,15,15],"right_children":[2,4,6,8,-1,10,-1,12,14,16,-1,18,-1,20,22,24,-1,-1,-1,-1,-1,-1,-1,-1,-1],"split_conditions":[1E0,1.6057845E0,-1.0310285E0,-1.2372755E0,-6.501093E-2,-4.8674744E-1,6.2246304E-2,-1.4848738E0,-1.2410108E0,-1.2224882E0,5.6249E-2,-1.5006394E0,-6.1621454E-2,1E0,7.480045E-2,1E0,-5.380367E-2,-3.953409E-2,3.0921875E-2,3.500313E-2,-4.2423945E-2,-3.4336064E-2,-1.52326245E-2,3.108283E-2,-2.6298115E-2],"split_indices":[1,6,8,6,0,6,0,8,8,8,0,8,0,4,8,0,0,0,0,0,0,0,0,0,0],"split_type":[0,0,0,0,0,0,0,0,0,0,0,0,0,0,0,0,0,0,0,0,0,0,0,0,0],"sum_hessian":[2.5428908E2,1.6656116E2,8.772792E1,1.5865515E2,7.906009E0,1.3509436E1,7.421849E1,1.4006641E1,1.4464851E2,6.7854233E0,6.724013E0,2.8246927E0,1.1181949E1,7.9638734E0,1.3668463E2,5.6001806E0,1.1852427E0,1.7321457E0,1.092547E0,6.377543E0,1.5863305E0,6.1952923E1,7.473171E1,3.81472E0,1.7854606E0],"tree_param":{"num_deleted":"0","num_feature":"9","num_nodes":"25","size_leaf_vector":"1"}},{"base_weights":[2.065245E-2,-5.409211E-1,1.1224719E0,-6.5059686E-1,-2.6325184E-1,4.2196798E-1,5.901424E-2,-5.64162E-1,-9.8438793E-1,-4.216608E-1,1.5571168E-1,-5.0711572E-2,5.327146E-2,-6.0994816E-1,5.7888646E-2,-1.0796264E0,8.5384175E-3,-7.101236E-1,2.8314862E-1,7.3505604E-1,-4.9558485E-1,-1.785039E-2,-3.965563E-2,-6.4551316E-2,-4.0780876E-2,-1.2033037E-2,-5.53261E-2,3.0842567E-2,-4.969865E-2,-7.0398436E-3,5.432057E-2,-5.8948725E-2,1.401314E-2],"categories":[],"categories_nodes":[],"categories_segments":[],"categories_sizes":[],"default_left":[0,0,0,0,0,0,0,0,0,0,0,0,0,0,0,0,0,0,0,0,0,0,0,0,0,0,0,0,0,0,0,0,0],"id":28,"left_children":[1,3,5,7,9,11,-1,13,15,17,19,-1,-1,21,-1,23,-1,25,27,29,31,-1,-1,-1,-1,-1,-1,-1,-1,-1,-1,-1,-1],"loss_changes":[1.5223578E2,4.792595E0,2.8656235E0,2.7961578E0,3.2401524E0,8.37078E0,0E0,8.165657E0,2.6653461E0,7.3125787E0,5.5915866E0,0E0,0E0,4.0171127E0,0E0,1.1738968E-1,0E0,4.405635E0,5.2470837E0,2.5331407E0,4.105013E0,0E0,0E0,0E0,0E0,0E0,0E0,0E0,0E0,0E0,0E0,0E0,0E0],"parents":[2147483647,0,0,1,1,2,2,3,3,4,4,5,5,7,7,8,8,9,9,10,10,13,13,15,15,17,17,18,18,19,19,20,20],"right_children":[2,4,6,8,10,12,-1,14,16,18,20,-1,-1,22,-1,24,-1,26,28,30,32,-1,-1,-1,-1,-1,-1,-1,-1,-1,-1,-1,-1],"split_conditions":[1E0,9.3333894E-1,-1.273725E0,7.8567106E-1,8.9501953E-1,-6.343132E-1,5.901424E-2,7.5584877E-1,2.3528163E0,1E0,1.1683906E0,-5.0711572E-2,5.327146E-2,-6.343132E-1,5.7888646E-2,1.2296921E0,8.5384175E-3,-3.2935193E-1,4.410577E-1,-9.225236E-2,1.569335E0,-1.785039E-2,-3.965563E-2,-6.4551316E-2,-4.0780876E-2,-1.2033037E-2,-5.53261E-2,3.0842567E-2,-4.969865E-2,-7.0398436E-3,5.432057E-2,-5.8948725E-2,1.401314E-2],"split_indices":[1,5,6,6,6,5,0,6,7,3,6,0,0,5,0,6,0,6,6,7,6,0,0,0,0,0,0,0,0,0,0,0,0],"split_type":[0,0,0,0,0,0,0,0,0,0,0,0,0,0,0,0,0,0,0,0,0,0,0,0,0,0,0,0,0,0,0,0,0],"sum_hessian":[2.4405528E2,1.6199765E2,8.2057625E1,1.1516564E2,4.6832012E1,6.8886304E0,7.5169E1,9.361444E1,2.1551203E1,3.3978424E1,1.2853587E1,1.9531054E0,4.935525E0,9.1818756E1,1.7956779E0,1.9970121E1,1.58108E0,2.4105175E1,9.873249E0,6.734489E0,6.119098E0,3.98026E1,5.201616E1,8.929731E0,1.1040391E1,1.1771299E1,1.2333875E1,8.237777E0,1.6354731E0,2.09969E0,4.634799E0,2.9771452E0,3.1419532E0],"tree_param":{"num_deleted":"0","num_feature":"9","num_nodes":"33","size_leaf_vector":"1"}},{"base_weights":[-8.941708E-3,6.254128E-2,-2.6532486E-1,-4.1049963E-1,1.0555431E-1,-2.177455E-2,-5.5017436E-1,-7.7827215E-1,-1.14627406E-1,3.74586E-1,5.7843536E-2,-4.4842598E-1,3.4139034E-1,-7.93199E-1,4.1271088E-1,6.4713964E-3,-5.6015123E-2,4.544207E-2,-4.3076944E-1,-4.5123104E-2,5.045719E-1,8.1853545E-1,2.6628405E-2,2.0710483E-2,-6.444842E-1,6.040844E-2,9.6136495E-2,-2.1478331E-1,-9.480415E-1,9.0667456E-1,-2.1723978E-2,-3.5581626E-2,2.1505123E-2,1.6738417E-2,7.273749E-2,5.754816E-2,1.6325811E-3,-1.6133571E-2,6.801647E-3,-2.6045388E-2,3.0515516E-2,-4.086782E-2,1.4629503E-2,-1.7310305E-2,1.5281508E-2,2.325805E-2,-4.8065253E-2,-4.973284E-2,-7.998037E-3,5.248931E-2,1.4476277E-2],"categories":[],"categories_nodes":[],"categories_segments":[],"categories_sizes":[],"default_left":[0,0,0,0,0,0,0,0,0,0,0,0,0,0,0,0,0,0,0,0,0,0,0,0,0,0,0,0,0,0,0,0,0,0,0,0,0,0,0,0,0,0,0,0,0,0,0,0,0,0,0],"id":29,"left_children":[1,3,5,7,9,11,13,15,17,19,21,23,25,27,29,-1,-1,-1,31,-1,33,35,37,39,41,-1,43,45,47,49,-1,-1,-1,-1,-1,-1,-1,-1,-1,-1,-1,-1,-1,-1,-1,-1,-1,-1,-1,-1,-1],"loss_changes":[4.4256477E0,3.8875575E0,3.6400986E0,1.6466031E0,2.211514E0,4.7115126E0,5.995606E0,2.2993555E0,3.631307E0,4.77533E0,3.5152194E0,1.2973311E0,3.3829274E0,1.5592899E0,2.7120357E0,0E0,0E0,0E0,2.3197694E0,0E0,3.4274182E0,1.4875793E0,5.5514283E0,1.9412106E0,1.8390632E0,0E0,1.3954026E0,3.2132804E0,4.005394E-1,3.37193E-2,0E0,0E0,0E0,0E0,0E0,0E0,0E0,0E0,0E0,0E0,0E0,0E0,0E0,0E0,0E0,0E0,0E0,0E0,0E0,0E0,0E0],"parents":[2147483647,0,0,1,1,2,2,3,3,4,4,5,5,6,6,7,7,8,8,9,9,10,10,11,11,12,12,13,13,14,14,18,18,20,20,21,21,22,22,23,23,24,24,26,26,27,27,28,28,29,29],"right_children":[2,4,6,8,10,12,14,16,18,20,22,24,26,28,30,-1,-1,-1,32,-1,34,36,38,40,42,-1,44,46,48,50,-1,-1,-1,-1,-1,-1,-1,-1,-1,-1,-1,-1,-1,-1,-1,-1,-1,-1,-1,-1,-1],"split_conditions":[1E0,-1.2372755E0,1.24699146E-1,-6.343132E-1,-7.9159766E-1,-8.363848E-1,1.7858794E0,-1.8403488E0,-3.4928554E-1,-1.3468823E0,-1.2763476E0,-1.2794542E0,-7.952232E-1,-5.033154E-1,1.1683906E0,6.4713964E-3,-5.6015123E-2,4.544207E-2,1E0,-4.5123104E-2,5.8873767E-1,1E0,-1.7858358E-1,-1.3468823E0,-6.343132E-1,6.040844E-2,-3.9448032E-1,1.1471097E0,1.6459081E0,1.6459081E0,-2.1723978E-2,-3.5581626E-2,2.1505123E-2,1.6738417E-2,7.273749E-2,5.754816E-2,1.6325811E-3,-1.6133571E-2,6.801647E-3,-2.6045388E-2,3.0515516E-2,-4.086782E-2,1.4629503E-2,-1.7310305E-2,1.5281508E-2,2.325805E-2,-4.8065253E-2,-4.973284E-2,-7.998037E-3,5.248931E-2,1.4476277E-2],"split_indices":[4,6,8,5,6,8,8,6,5,5,8,8,8,6,6,0,0,0,3,0,8,0,6,5,5,0,8,5,5,5,0,0,0,0,0,0,0,0,0,0,0,0,0,0,0,0,0,0,0,0,0],"split_type":[0,0,0,0,0,0,0,0,0,0,0,0,0,0,0,0,0,0,0,0,0,0,0,0,0,0,0,0,0,0,0,0,0,0,0,0,0,0,0,0,0,0,0,0,0,0,0,0,0,0,0],"sum_hessian":[2.395765E2,1.8793408E2,5.1642426E1,1.4952173E1,1.729819E2,2.841966E1,2.3222765E1,5.939221E0,9.012953E0,2.50242E1,1.479577E2,1.2959674E1,1.5459988E1,1.868344E1,4.5393248E0,1.7955838E0,4.143637E0,1.6845741E0,7.3283787E0,1.7627988E0,2.3261402E1,4.83794E0,1.4311977E2,4.0833135E0,8.876361E0,2.543727E0,1.291626E1,4.449479E0,1.4233961E1,2.8230824E0,1.7162426E0,5.6563344E0,1.6720442E0,2.0881966E1,2.379435E0,3.073365E0,1.7645754E0,3.3670235E1,1.0944953E2,2.1889794E0,1.8943343E0,7.6017423E0,1.2746184E0,3.9414225E0,8.974837E0,2.5258179E0,1.9236614E0,1.3191549E1,1.042411E0,1.7226007E0,1.1004817E0],"tree_param":{"num_deleted":"0","num_feature":"9","num_nodes":"51","size_leaf_vector":"1"}},{"base_weights":[-1.2697417E-2,-5.5215216E-1,1.1142392E0,-5.849707E-2,-5.063336E-1,1.2860748E-1,5.941471E-2,-4.932055E-2,-5.7282203E-1,4.8249337E-1,-2.699251E-2,-4.9914706E-2,1.4607713E-1,3.6925763E-1,-6.083697E-1,-5.281878E-3,4.6358597E-2,7.0901856E-2,-2.538773E-3,-3.7105985E-2,4.1647863E-2,-3.606735E-2,-1.65879E-2],"categories":[],"categories_nodes":[],"categories_segments":[],"categories_sizes":[],"default_left":[0,0,0,0,0,0,0,0,0,0,0,0,0,0,0,0,0,0,0,0,0,0,0],"id":30,"left_children":[1,3,5,-1,7,9,-1,11,13,15,-1,-1,17,19,21,-1,-1,-1,-1,-1,-1,-1,-1],"loss_changes":[1.4722064E2,4.0429115E0,5.569618E0,0E0,4.6576385E0,1.8218056E0,0E0,3.9805026E0,4.729931E0,1.3646846E0,0E0,0E0,4.5843754E0,3.4597743E0,3.8238487E0,0E0,0E0,0E0,0E0,0E0,0E0,0E0,0E0],"parents":[2147483647,0,0,1,1,2,2,4,4,5,5,7,7,8,8,9,9,12,12,13,13,14,14],"right_children":[2,4,6,-1,8,10,-1,12,14,16,-1,-1,18,20,22,-1,-1,-1,-1,-1,-1,-1,-1],"split_conditions":[1E0,-1.3366833E0,-1.2689697E0,-5.849707E-2,-8.545559E-1,1E0,5.941471E-2,-1.2590092E0,-1.2763476E0,-1.3515943E0,-2.699251E-2,-4.9914706E-2,-1.2410108E0,-7.0875794E-1,9.3333894E-1,-5.281878E-3,4.6358597E-2,7.0901856E-2,-2.538773E-3,-3.7105985E-2,4.1647863E-2,-3.606735E-2,-1.65879E-2],"split_indices":[1,6,8,0,6,0,0,8,8,6,0,0,8,6,5,0,0,0,0,0,0,0,0],"split_type":[0,0,0,0,0,0,0,0,0,0,0,0,0,0,0,0,0,0,0,0,0,0,0],"sum_hessian":[2.4015457E2,1.6275514E2,7.739943E1,9.543418E0,1.5321172E2,5.600213E0,7.179922E1,1.9680214E1,1.3353151E2,3.84359E0,1.756623E0,2.6587276E0,1.7021486E1,4.514014E0,1.290175E2,1.9831374E0,1.8604528E0,1.4498372E0,1.5571649E1,1.1521508E0,3.361863E0,9.0462036E1,3.8555458E1],"tree_param":{"num_deleted":"0","num_feature":"9","num_nodes":"23","size_leaf_vector":"1"}},{"base_weights":[5.1750517E-3,-5.115404E-1,1.0819964E0,-4.128098E-1,-8.505719E-1,7.885056E-1,5.992077E-2,-3.7976977E-1,-6.1044183E-2,-1.1118861E0,-4.8709813E-1,4.513282E-2,3.2201767E-1,-4.3622717E-1,3.2259804E-1,-2.933553E-1,-6.22175E-2,1.4315954E-1,-6.717991E-1,-3.5834864E-1,3.78555E-2,-3.127327E-2,-1.5986947E-2,6.088742E-4,3.7166994E-2,-3.8881645E-2,1.2275776E-2,3.0526698E-2,-3.5198927E-2,-4.4096984E-2,-1.0498626E-2,-3.8809773E-2,1.1012633E-2],"categories":[],"categories_nodes":[],"categories_segments":[],"categories_sizes":[],"default_left":[0,0,0,0,0,0,0,0,0,0,0,0,0,0,0,0,0,0,0,0,0,0,0,0,0,0,0,0,0,0,0,0,0],"id":31,"left_children":[1,3,5,7,9,11,-1,13,-1,15,17,-1,19,21,23,25,-1,27,29,31,-1,-1,-1,-1,-1,-1,-1,-1,-1,-1,-1,-1,-1],"loss_changes":[1.3483638E2,5.1304283E0,1.7398376E0,2.9743595E0,2.8768501E0,1.0533695E0,0E0,5.1039524E0,0E0,1.8206387E0,2.0556479E0,0E0,2.200396E0,2.3632164E0,1.2822833E0,1.2651268E0,0E0,2.266627E0,1.0952144E0,9.495994E-1,0E0,0E0,0E0,0E0,0E0,0E0,0E0,0E0,0E0,0E0,0E0,0E0,0E0],"parents":[2147483647,0,0,1,1,2,2,3,3,4,4,5,5,7,7,9,9,10,10,12,12,13,13,14,14,15,15,17,17,18,18,19,19],"right_children":[2,4,6,8,10,12,-1,14,-1,16,18,-1,20,22,24,26,-1,28,30,32,-1,-1,-1,-1,-1,-1,-1,-1,-1,-1,-1,-1,-1],"split_conditions":[1E0,1E0,-6.343132E-1,1.717165E0,5.0579745E-1,-9.1934085E-1,5.992077E-2,1.5033942E0,-6.1044183E-2,-1.3468823E0,7.908251E-1,4.513282E-2,1E0,-9.225236E-2,1E0,1E0,-6.22175E-2,7.227705E-1,1.4321374E0,1E0,3.78555E-2,-3.127327E-2,-1.5986947E-2,6.088742E-4,3.7166994E-2,-3.8881645E-2,1.2275776E-2,3.0526698E-2,-3.5198927E-2,-4.4096984E-2,-1.0498626E-2,-3.8809773E-2,1.1012633E-2],"split_indices":[1,4,5,5,5,5,0,5,0,5,5,0,0,7,3,0,0,7,5,3,0,0,0,0,0,0,0,0,0,0,0,0,0],"split_type":[0,0,0,0,0,0,0,0,0,0,0,0,0,0,0,0,0,0,0,0,0,0,0,0,0,0,0,0,0,0,0,0,0],"sum_hessian":[2.4033794E2,1.6276141E2,7.757652E1,1.27770485E2,3.499092E1,2.4240223E1,5.3336304E1,1.2416373E2,3.6067586E0,1.9158289E1,1.5832634E1,1.8723522E1,5.5166993E0,1.15276535E2,8.887188E0,3.1163142E0,1.6041975E1,3.6392577E0,1.2193377E1,2.2206264E0,3.296073E0,4.2257996E1,7.301854E1,5.706162E0,3.1810257E0,1.407937E0,1.7083771E0,2.5253148E0,1.1139429E0,7.7550106E0,4.438366E0,1.0911387E0,1.1294876E0],"tree_param":{"num_deleted":"0","num_feature":"9","num_nodes":"33","size_leaf_vector":"1"}},{"base_weights":[2.7923409E-2,-4.4966313E-1,1.0900697E0,-6.422389E-1,-1.9646506E-1,-1.0689396E-2,1.133372E0,-4.414845E-1,-8.870335E-1,5.714572E-1,-3.3415595E-1,7.088837E-1,5.932012E-2,-6.427562E-1,7.713087E-2,-1.1078304E0,-6.3854903E-1,-8.8922314E-2,6.929431E-2,4.699528E-1,-3.9795423E-1,-2.7262345E-2,5.1390316E-2,-2.2779114E-3,-4.427186E-2,-5.0621755E-2,2.0858131E-2,-6.1209645E-2,-2.5197297E-2,2.0343713E-2,-3.6655936E-2,-3.5301644E-2,6.1289765E-2,-4.5553368E-2,6.224162E-2,-2.7543044E-2,-4.589557E-3],"categories":[],"categories_nodes":[],"categories_segments":[],"categories_sizes":[],"default_left":[0,0,0,0,0,0,0,0,0,0,0,0,0,0,0,0,0,0,0,0,0,0,0,0,0,0,0,0,0,0,0,0,0,0,0,0,0],"id":32,"left_children":[1,3,5,7,9,-1,11,13,15,17,19,21,-1,23,25,27,29,31,-1,33,35,-1,-1,-1,-1,-1,-1,-1,-1,-1,-1,-1,-1,-1,-1,-1,-1],"loss_changes":[1.1939499E2,7.7926636E0,4.3637695E0,4.1200027E0,7.7616706E0,0E0,7.5296783E-1,5.5224056E0,1.5077171E0,6.176643E0,3.3340654E0,4.6994195E0,0E0,5.4493666E0,6.1840835E0,7.8969383E-1,2.4097347E0,6.670595E0,0E0,6.450379E0,2.6355104E0,0E0,0E0,0E0,0E0,0E0,0E0,0E0,0E0,0E0,0E0,0E0,0E0,0E0,0E0,0E0,0E0],"parents":[2147483647,0,0,1,1,2,2,3,3,4,4,6,6,7,7,8,8,9,9,10,10,11,11,13,13,14,14,15,15,16,16,17,17,19,19,20,20],"right_children":[2,4,6,8,10,-1,12,14,16,18,20,22,-1,24,26,28,30,32,-1,34,36,-1,-1,-1,-1,-1,-1,-1,-1,-1,-1,-1,-1,-1,-1,-1,-1],"split_conditions":[1E0,2.4779555E-1,-1.3884935E0,-6.1875266E-1,3.862887E-1,-1.0689396E-2,-1.0310285E0,7.227705E-1,-1.4440435E-1,1E0,-7.9159766E-1,-9.456796E-1,5.932012E-2,-1.0368034E0,-1.1097023E0,4.410577E-1,-1.2964831E-1,5.8354205E-1,6.929431E-2,5.407417E-1,1.4373262E0,-2.7262345E-2,5.1390316E-2,-2.2779114E-3,-4.427186E-2,-5.0621755E-2,2.0858131E-2,-6.1209645E-2,-2.5197297E-2,2.0343713E-2,-3.6655936E-2,-3.5301644E-2,6.1289765E-2,-4.5553368E-2,6.224162E-2,-2.7543044E-2,-4.589557E-3],"split_indices":[1,8,8,8,8,0,8,7,8,3,6,6,0,6,6,6,8,6,0,8,8,0,0,0,0,0,0,0,0,0,0,0,0,0,0,0,0],"split_type":[0,0,0,0,0,0,0,0,0,0,0,0,0,0,0,0,0,0,0,0,0,0,0,0,0,0,0,0,0,0,0,0,0,0,0,0,0],"sum_hessian":[2.3340297E2,1.61405E2,7.199797E1,9.080477E1,7.060023E1,2.1877084E0,6.9810265E1,5.143048E1,3.9374294E1,1.0255198E1,6.034503E1,9.348289E0,6.0461975E1,3.6878696E1,1.4551783E1,1.9017494E1,2.0356802E1,6.155129E0,4.1000686E0,3.9678838E0,5.6377148E1,1.7514068E0,7.596882E0,1.0999202E1,2.5879496E1,2.9908168E0,1.1560966E1,1.5083798E1,3.9336956E0,1.4147731E0,1.8942028E1,4.503993E0,1.6511357E0,1.3629782E0,2.6049056E0,3.706605E1,1.9311096E1],"tree_param":{"num_deleted":"0","num_feature":"9","num_nodes":"37","size_leaf_vector":"1"}},{"base_weights":[-1.1669026E-3,-4.6257132E-1,1.040823E0,-5.652574E-1,-2.6971838E-1,-1.3989113E-1,1.1252875E0,-4.3604517E-1,-8.3868384E-1,-5.6089994E-2,-1.5609805E-1,-3.7982736E-2,1.9354725E-1,6.7866254E-1,5.8669295E-2,-5.0819665E-1,6.3673294E-1,-1.0193584E0,1.1364973E-1,6.847721E-1,-2.8300062E-1,3.7074562E-2,-1.8099051E-2,-2.5941957E-2,5.2435007E-2,-8.218206E-3,-3.065817E-2,7.060774E-2,-5.6585134E-3,-5.930952E-2,-1.8836044E-2,4.4440072E-2,-2.2839865E-2,5.1840942E-2,-3.5825428E-2,-2.0368725E-2,1.9935582E-2],"categories":[],"categories_nodes":[],"categories_segments":[],"categories_sizes":[],"default_left":[0,0,0,0,0,0,0,0,0,0,0,0,0,0,0,0,0,0,0,0,0,0,0,0,0,0,0,0,0,0,0,0,0,0,0,0,0],"id":33,"left_children":[1,3,5,7,9,11,13,15,17,-1,19,-1,21,23,-1,25,27,29,31,33,35,-1,-1,-1,-1,-1,-1,-1,-1,-1,-1,-1,-1,-1,-1,-1,-1],"loss_changes":[1.12124214E2,3.048481E0,7.295555E0,3.3285027E0,5.44724E0,1.3183147E0,6.409683E-1,5.9809513E0,5.7031784E0,0E0,5.785618E0,0E0,1.6327683E0,4.477577E0,0E0,2.390953E0,3.096278E0,2.4901943E0,3.0935593E0,4.276969E0,4.0828896E0,0E0,0E0,0E0,0E0,0E0,0E0,0E0,0E0,0E0,0E0,0E0,0E0,0E0,0E0,0E0,0E0],"parents":[2147483647,0,0,1,1,2,2,3,3,4,4,5,5,6,6,7,7,8,8,10,10,12,12,13,13,15,15,16,16,17,17,18,18,19,19,20,20],"right_children":[2,4,6,8,10,12,14,16,18,-1,20,-1,22,24,-1,26,28,30,32,34,36,-1,-1,-1,-1,-1,-1,-1,-1,-1,-1,-1,-1,-1,-1,-1,-1],"split_conditions":[1E0,7.227705E-1,-1.2689697E0,4.5099849E-1,-1.0898207E0,-1.4708836E0,-1.0310285E0,3.8472667E-1,2.1057358E0,-5.6089994E-2,-9.974197E-1,-3.7982736E-2,-1.006981E0,-9.456796E-1,5.8669295E-2,-1.0368034E0,4.0295142E-1,1E0,2.1429753E0,2.3528163E0,1.4373262E0,3.7074562E-2,-1.8099051E-2,-2.5941957E-2,5.2435007E-2,-8.218206E-3,-3.065817E-2,7.060774E-2,-5.6585134E-3,-5.930952E-2,-1.8836044E-2,4.4440072E-2,-2.2839865E-2,5.1840942E-2,-3.5825428E-2,-2.0368725E-2,1.9935582E-2],"split_indices":[1,7,8,6,6,6,8,6,8,0,8,0,6,6,0,6,6,2,8,7,8,0,0,0,0,0,0,0,0,0,0,0,0,0,0,0,0],"split_type":[0,0,0,0,0,0,0,0,0,0,0,0,0,0,0,0,0,0,0,0,0,0,0,0,0,0,0,0,0,0,0,0,0,0,0,0,0],"sum_hessian":[2.3121236E2,1.6063673E2,7.057562E1,1.0356287E2,5.7073875E1,4.667887E0,6.590773E1,7.20902E1,3.1472664E1,5.6710796E0,5.1402794E1,1.1857262E0,3.482161E0,7.8767495E0,5.8030983E1,6.804031E1,4.049885E0,2.6394733E1,5.07793E0,6.1639223E0,4.5238873E1,1.584522E0,1.8976392E0,1.7644801E0,6.1122694E0,1.6513624E1,5.152669E1,1.5568943E0,2.4929903E0,2.028328E1,6.1114545E0,1.9161253E0,3.1618047E0,5.1341505E0,1.0297719E0,3.859914E1,6.639733E0],"tree_param":{"num_deleted":"0","num_feature":"9","num_nodes":"37","size_leaf_vector":"1"}},{"base_weights":[1.0565381E-2,-4.263059E-1,1.059357E0,-5.9751385E-1,-2.1728605E-1,-4.2538875E-1,5.631132E-2,-3.725039E-1,-8.9819455E-1,5.9932727E-1,-3.7658095E-1,-4.2783022E-2,1.2241489E-2,-6.294741E-1,2.3812254E-1,-1.1400204E0,-3.50761E-1,8.436002E-1,-4.239727E-2,-1.7626636E-1,-5.59727E-1,-1.4880537E-2,-5.4615714E-2,-3.2155823E-2,3.298073E-2,-2.657221E-2,-6.167778E-2,1.5205534E-2,-5.744914E-2,5.3721417E-2,-3.2052558E-3,-1.928926E-2,4.6047986E-2,-4.2961203E-2,-1.18974E-2],"categories":[],"categories_nodes":[],"categories_segments":[],"categories_sizes":[],"default_left":[0,0,0,0,0,0,0,0,0,0,0,0,0,0,0,0,0,0,0,0,0,0,0,0,0,0,0,0,0,0,0,0,0,0,0],"id":34,"left_children":[1,3,5,7,9,11,-1,13,15,17,19,-1,-1,21,23,25,27,29,-1,31,33,-1,-1,-1,-1,-1,-1,-1,-1,-1,-1,-1,-1,-1,-1],"loss_changes":[1.04500496E2,5.632557E0,7.1374817E0,5.615589E0,9.861805E0,1.2522813E0,0E0,8.311238E0,4.4897346E0,5.1264105E0,2.1979256E0,0E0,0E0,5.339858E0,6.4157457E0,7.7742004E-1,7.020121E0,2.4106703E0,0E0,7.564207E0,2.902729E0,0E0,0E0,0E0,0E0,0E0,0E0,0E0,0E0,0E0,0E0,0E0,0E0,0E0,0E0],"parents":[2147483647,0,0,1,1,2,2,3,3,4,4,5,5,7,7,8,8,9,9,10,10,13,13,14,14,15,15,16,16,17,17,19,19,20,20],"right_children":[2,4,6,8,10,12,-1,14,16,18,20,-1,-1,22,24,26,28,30,-1,32,34,-1,-1,-1,-1,-1,-1,-1,-1,-1,-1,-1,-1,-1,-1],"split_conditions":[1E0,2.4379589E-1,-1.2934335E0,-6.1875266E-1,3.862887E-1,1E0,5.631132E-2,-8.48084E-1,3.6328363E-1,1E0,1.0112457E0,-4.2783022E-2,1.2241489E-2,-1.1096045E0,-8.8273036E-1,-6.343132E-1,6.483113E-1,1E0,-4.239727E-2,1.5033942E0,1E0,-1.4880537E-2,-5.4615714E-2,-3.2155823E-2,3.298073E-2,-2.657221E-2,-6.167778E-2,1.5205534E-2,-5.744914E-2,5.3721417E-2,-3.2052558E-3,-1.928926E-2,4.6047986E-2,-4.2961203E-2,-1.18974E-2],"split_indices":[1,8,8,8,8,4,0,5,5,2,8,0,0,8,8,5,5,4,0,5,0,0,0,0,0,0,0,0,0,0,0,0,0,0,0],"split_type":[0,0,0,0,0,0,0,0,0,0,0,0,0,0,0,0,0,0,0,0,0,0,0,0,0,0,0,0,0,0,0,0,0,0,0],"sum_hessian":[2.2608829E2,1.6002419E2,6.60641E1,8.6947174E1,7.3077E1,2.6160774E0,6.3448025E1,5.1011982E1,3.5935192E1,1.147727E1,6.1599735E1,1.4247302E0,1.1913471E0,3.588121E1,1.5130772E1,2.4173985E1,1.17612095E1,1.0176735E1,1.3005345E0,3.0358164E1,3.124157E1,2.1854334E1,1.4026878E1,4.7253613E0,1.0405411E1,4.1105967E0,2.0063387E1,6.8007774E0,4.9604325E0,7.96705E0,2.209685E0,2.603508E1,4.323083E0,1.5315957E1,1.5925612E1],"tree_param":{"num_deleted":"0","num_feature":"9","num_nodes":"35","size_leaf_vector":"1"}},{"base_weights":[6.6974405E-3,-4.429083E-1,1.0222524E0,-6.839416E-1,-2.8503177E-1,2.545318E-1,1.0754608E0,-1.6034804E-1,-7.55777E-1,-3.5654667E-1,7.719001E-1,-4.5089025E-2,4.625814E-2,8.081337E-1,5.7631917E-2,-5.8741647E-1,3.0532334E-2,-6.311692E-1,-6.169465E-2,-5.500532E-2,-2.864197E-1,6.0901683E-2,-6.1703953E-3,-7.918275E-2,5.4423552E-2,1.114641E-2,-4.7672976E-2,-4.599064E-2,-1.9497184E-2,6.428627E-3,-2.2128545E-2,-3.590843E-2,4.2262204E-2],"categories":[],"categories_nodes":[],"categories_segments":[],"categories_sizes":[],"default_left":[0,0,0,0,0,0,0,0,0,0,0,0,0,0,0,0,0,0,0,0,0,0,0,0,0,0,0,0,0,0,0,0,0],"id":35,"left_children":[1,3,5,7,9,11,13,15,17,19,21,-1,-1,23,-1,25,-1,27,-1,-1,29,-1,-1,31,-1,-1,-1,-1,-1,-1,-1,-1,-1],"loss_changes":[1.0474222E2,5.856062E0,2.6016922E0,2.2189941E0,7.667194E0,5.388151E0,4.202881E-1,3.2482197E0,2.4647255E0,4.49679E0,2.7520576E0,0E0,0E0,4.56954E0,0E0,2.0388744E0,0E0,2.7908993E0,0E0,0E0,5.6091084E0,0E0,0E0,3.7137425E0,0E0,0E0,0E0,0E0,0E0,0E0,0E0,0E0,0E0],"parents":[2147483647,0,0,1,1,2,2,3,3,4,4,5,5,6,6,7,7,8,8,9,9,10,10,13,13,15,15,17,17,20,20,23,23],"right_children":[2,4,6,8,10,12,14,16,18,20,22,-1,-1,24,-1,26,-1,28,-1,-1,30,-1,-1,32,-1,-1,-1,-1,-1,-1,-1,-1,-1],"split_conditions":[1E0,-9.225236E-2,-1.3515943E0,-1.2107668E0,1.5746512E0,-6.343132E-1,-4.8674744E-1,-1.3366833E0,1E0,-1.1792877E0,1.717165E0,-4.5089025E-2,4.625814E-2,-6.343132E-1,5.7631917E-2,-1.8403488E0,3.0532334E-2,-1.355148E-1,-6.169465E-2,-5.500532E-2,-6.343132E-1,6.0901683E-2,-6.1703953E-3,7.227705E-1,5.4423552E-2,1.114641E-2,-4.7672976E-2,-4.599064E-2,-1.9497184E-2,6.428627E-3,-2.2128545E-2,-3.590843E-2,4.2262204E-2],"split_indices":[1,7,6,6,5,5,6,6,2,6,5,0,0,5,0,6,0,5,0,0,5,0,0,7,0,0,0,0,0,0,0,0,0],"split_type":[0,0,0,0,0,0,0,0,0,0,0,0,0,0,0,0,0,0,0,0,0,0,0,0,0,0,0,0,0,0,0,0,0],"sum_hessian":[2.2740474E2,1.5801315E2,6.939159E1,6.12181E1,9.6795044E1,4.8724675E0,6.451912E1,7.7755876E0,5.3442516E1,9.128136E1,5.513689E0,1.6620541E0,3.2104137E0,1.7023672E1,4.749544E1,5.1570864E0,2.618501E0,4.4234203E1,9.208311E0,6.6012E0,8.468016E1,3.4393778E0,2.0743113E0,4.2594175E0,1.2764255E1,1.7263274E0,3.430759E0,1.8857174E1,2.5377031E1,2.319993E1,6.148023E1,2.6504698E0,1.6089479E0],"tree_param":{"num_deleted":"0","num_feature":"9","num_nodes":"33","size_leaf_vector":"1"}},{"base_weights":[3.0932184E-2,-3.8459176E-1,1.0019019E0,-5.282619E-1,-2.3205088E-1,-6.45941E-1,1.0784408E0,-2.454335E-1,-9.709916E-1,-5.1619716E-2,-1.696364E-1,-4.7269322E-2,-6.2130983E-3,5.6403214E-1,5.7105076E-2,-4.74002E-1,2.7019387E-1,-1.1338966E0,-6.942256E-2,5.474512E-2,-2.1375607E-1,-3.872835E-1,5.057139E-2,-3.3760283E-2,3.5532396E-3,-1.3845469E-2,7.167624E-2,-1.6428258E-2,-6.1602976E-2,4.1485056E-2,-4.7770556E-2,4.4250287E-4,-1.8041374E-2,-6.2037952E-2,2.685593E-2],"categories":[],"categories_nodes":[],"categories_segments":[],"categories_sizes":[],"default_left":[0,0,0,0,0,0,0,0,0,0,0,0,0,0,0,0,0,0,0,0,0,0,0,0,0,0,0,0,0,0,0,0,0,0,0],"id":36,"left_children":[1,3,5,7,9,11,13,15,17,-1,19,-1,-1,21,-1,23,25,27,29,-1,31,33,-1,-1,-1,-1,-1,-1,-1,-1,-1,-1,-1,-1,-1],"loss_changes":[8.809962E1,3.229889E0,8.9492035E0,9.527742E0,3.6202488E0,4.339149E-1,1.4157181E0,5.8946767E0,4.336811E0,0E0,4.2330914E0,0E0,0E0,4.180936E0,0E0,3.8057384E0,1.0366999E1,1.6029892E0,5.306459E0,0E0,2.2981696E0,3.4836638E0,0E0,0E0,0E0,0E0,0E0,0E0,0E0,0E0,0E0,0E0,0E0,0E0,0E0],"parents":[2147483647,0,0,1,1,2,2,3,3,4,4,5,5,6,6,7,7,8,8,10,10,13,13,15,15,16,16,17,17,18,18,20,20,21,21],"right_children":[2,4,6,8,10,12,14,16,18,-1,20,-1,-1,22,-1,24,26,28,30,-1,32,34,-1,-1,-1,-1,-1,-1,-1,-1,-1,-1,-1,-1,-1],"split_conditions":[1E0,2.920267E-1,-1.2934335E0,-6.1875266E-1,-1.1328975E0,-1.3468823E0,-1.0310285E0,-8.48084E-1,1.3506382E0,-5.1619716E-2,-1.0848504E0,-4.7269322E-2,-6.2130983E-3,-5.430785E-1,5.7105076E-2,7.227705E-1,-1.7858358E-1,-6.343132E-1,1.8244815E0,5.474512E-2,7.9454553E-1,-9.225236E-2,5.057139E-2,-3.3760283E-2,3.5532396E-3,-1.3845469E-2,7.167624E-2,-1.6428258E-2,-6.1602976E-2,4.1485056E-2,-4.7770556E-2,4.4250287E-4,-1.8041374E-2,-6.2037952E-2,2.685593E-2],"split_indices":[1,5,8,8,6,5,8,5,6,0,6,0,0,6,0,7,6,5,6,0,8,7,0,0,0,0,0,0,0,0,0,0,0,0,0],"split_type":[0,0,0,0,0,0,0,0,0,0,0,0,0,0,0,0,0,0,0,0,0,0,0,0,0,0,0,0,0,0,0,0,0,0,0],"sum_hessian":[2.1640457E2,1.5197232E2,6.443225E1,7.6993324E1,7.4979004E1,2.5297036E0,6.1902546E1,4.7929165E1,2.9064157E1,4.299927E0,7.067908E1,1.0911696E0,1.438534E0,7.902955E0,5.399959E1,3.326438E1,1.46647835E1,2.439798E1,4.6661777E0,1.5799038E0,6.9099174E1,2.570838E0,5.3321176E0,2.4121511E1,9.14287E0,1.0492317E1,4.1724668E0,3.1230989E0,2.1274881E1,2.3474534E0,2.3187244E0,2.7864103E1,4.123507E1,1.1587586E0,1.4120792E0],"tree_param":{"num_deleted":"0","num_feature":"9","num_nodes":"35","size_leaf_vector":"1"}},{"base_weights":[-5.2329812E-2,-4.4184142E-1,9.681686E-1,-1.0302813E0,-3.6872303E-1,1.8488015E-1,1.0467749E0,-5.908817E-2,-1.8771228E-1,4.6782723E-1,-4.2581585E-1,-4.9133297E-2,4.6804644E-2,7.4364024E-1,5.6411035E-2,2.217587E-2,-3.7045177E-2,-1.2968753E-1,6.6527987E-1,-6.49596E-1,-2.911158E-1,-2.783676E-1,5.2359838E-2,-3.50396E-2,2.5830736E-2,5.0481346E-2,9.172132E-3,-4.36328E-2,-1.980151E-2,7.759911E-3,-2.4832806E-2,-5.142951E-2,3.9296966E-2],"categories":[],"categories_nodes":[],"categories_segments":[],"categories_sizes":[],"default_left":[0,0,0,0,0,0,0,0,0,0,0,0,0,0,0,0,0,0,0,0,0,0,0,0,0,0,0,0,0,0,0,0,0],"id":37,"left_children":[1,3,5,7,9,11,13,-1,15,17,19,-1,-1,21,-1,-1,-1,23,25,27,29,31,-1,-1,-1,-1,-1,-1,-1,-1,-1,-1,-1],"loss_changes":[8.470147E1,6.2516975E0,3.4318542E0,1.8813019E0,6.821398E0,6.6950083E0,4.768448E-1,0E0,1.6205641E0,1.1875944E0,3.7390919E0,0E0,0E0,4.703289E0,0E0,0E0,0E0,1.5267168E0,1.005974E0,2.3780823E0,7.7060485E0,4.039455E0,0E0,0E0,0E0,0E0,0E0,0E0,0E0,0E0,0E0,0E0,0E0],"parents":[2147483647,0,0,1,1,2,2,3,3,4,4,5,5,6,6,8,8,9,9,10,10,13,13,17,17,18,18,19,19,20,20,21,21],"right_children":[2,4,6,8,10,12,14,-1,16,18,20,-1,-1,22,-1,-1,-1,24,26,28,30,32,-1,-1,-1,-1,-1,-1,-1,-1,-1,-1,-1],"split_conditions":[1E0,-1.0898207E0,-1.273725E0,1E0,-9.241413E-1,-6.343132E-1,-4.8674744E-1,-5.908817E-2,-9.225236E-2,-9.225236E-2,-9.225236E-2,-4.9133297E-2,4.6804644E-2,-7.7682704E-1,5.6411035E-2,2.217587E-2,-3.7045177E-2,-9.274549E-1,-7.055701E-1,5.0579745E-1,-5.630563E-1,7.227705E-1,5.2359838E-2,-3.50396E-2,2.5830736E-2,5.0481346E-2,9.172132E-3,-4.36328E-2,-1.980151E-2,7.759911E-3,-2.4832806E-2,-5.142951E-2,3.9296966E-2],"split_indices":[1,6,6,3,6,5,6,0,7,7,7,0,0,5,0,0,0,6,5,5,5,7,0,0,0,0,0,0,0,0,0,0,0],"split_type":[0,0,0,0,0,0,0,0,0,0,0,0,0,0,0,0,0,0,0,0,0,0,0,0,0,0,0,0,0,0,0,0,0],"sum_hessian":[2.1101143E2,1.5313046E2,5.7880966E1,1.5477834E1,1.3765263E2,5.584544E0,5.229642E1,1.2777964E1,2.6998699E0,8.334695E0,1.2931793E2,2.0657768E0,3.5187676E0,1.3220676E1,3.9075745E1,1.3535882E0,1.3462815E0,2.1553998E0,6.1792946E0,4.7155285E1,8.216265E1,3.04656E0,1.0174116E1,1.0995092E0,1.0558904E0,2.964986E0,3.2143087E0,2.3787796E1,2.336749E1,2.5984451E1,5.6178196E1,1.8066344E0,1.2399256E0],"tree_param":{"num_deleted":"0","num_feature":"9","num_nodes":"33","size_leaf_vector":"1"}},{"base_weights":[6.753058E-2,-3.138189E-1,1.0120021E0,-2.3126344E-1,-5.9071183E-1,4.5708904E-1,5.6203593E-2,-3.8102144E-1,2.7114872E-2,-5.665848E-2,-8.5658616E-1,-1.6945106E-1,4.9836643E-2,-6.036467E-1,-1.9213013E-1,-5.0614573E-2,1.5671696E-1,-7.787152E-1,1.0303636E0,-3.1840733E-1,-5.9819527E-2,3.1404614E-1,-6.1371755E-2,-1.6086452E-3,-4.0133137E-2,-1.4230289E-2,2.4544373E-2,5.1525336E-2,-1.5068273E-3,-1.6151862E-2,-5.2651018E-2,-1.4477307E-3,9.143188E-2,-5.1188707E-2,1.9924399E-2,-9.576514E-3,2.8614594E-2],"categories":[],"categories_nodes":[],"categories_segments":[],"categories_sizes":[],"default_left":[0,0,0,0,0,0,0,0,0,0,0,0,0,0,0,0,0,0,0,0,0,0,0,0,0,0,0,0,0,0,0,0,0,0,0,0,0],"id":38,"left_children":[1,3,5,7,9,11,-1,13,15,17,19,21,-1,23,25,-1,27,29,31,33,-1,35,-1,-1,-1,-1,-1,-1,-1,-1,-1,-1,-1,-1,-1,-1,-1],"loss_changes":[7.673995E1,3.3360147E0,3.2963448E0,4.6020775E0,4.8142757E0,4.219344E0,0E0,3.0459557E0,6.1500235E0,1.0577165E1,3.787447E0,3.6583743E0,0E0,3.8464022E0,2.8016496E0,0E0,6.629062E0,6.663704E-1,4.6202493E0,5.557959E0,0E0,7.869259E-1,0E0,0E0,0E0,0E0,0E0,0E0,0E0,0E0,0E0,0E0,0E0,0E0,0E0,0E0,0E0],"parents":[2147483647,0,0,1,1,2,2,3,3,4,4,5,5,7,7,8,8,9,9,10,10,11,11,13,13,14,14,16,16,17,17,18,18,19,19,21,21],"right_children":[2,4,6,8,10,12,-1,14,16,18,20,22,-1,24,26,-1,28,30,32,34,-1,36,-1,-1,-1,-1,-1,-1,-1,-1,-1,-1,-1,-1,-1,-1,-1],"split_conditions":[1E0,1E0,-1.0310285E0,7.227705E-1,-5.033154E-1,-4.8674744E-1,5.6203593E-2,-7.349771E-2,-1.0898207E0,-6.441429E-1,-9.225236E-2,1E0,4.9836643E-2,-1.0368034E0,1.5875598E0,-5.0614573E-2,-9.974197E-1,-1.0848504E0,7.480045E-2,1E0,-5.9819527E-2,-1.4708836E0,-6.1371755E-2,-1.6086452E-3,-4.0133137E-2,-1.4230289E-2,2.4544373E-2,5.1525336E-2,-1.5068273E-3,-1.6151862E-2,-5.2651018E-2,-1.4477307E-3,9.143188E-2,-5.1188707E-2,1.9924399E-2,-9.576514E-3,2.8614594E-2],"split_indices":[1,4,8,7,6,6,0,8,6,6,7,0,0,6,6,0,8,6,8,0,0,6,0,0,0,0,0,0,0,0,0,0,0,0,0,0,0],"split_type":[0,0,0,0,0,0,0,0,0,0,0,0,0,0,0,0,0,0,0,0,0,0,0,0,0,0,0,0,0,0,0,0,0,0,0,0,0],"sum_hessian":[2.1118196E2,1.509148E2,6.026717E1,1.176675E2,3.3247284E1,1.0979724E1,4.9287445E1,7.419112E1,4.347639E1,1.1453702E1,2.1793583E1,5.3982334E0,5.581491E0,3.304679E1,4.1144325E1,4.064934E0,3.9411457E1,7.0526133E0,4.401088E0,9.18442E0,1.2609164E1,4.1876493E0,1.2105842E0,8.835976E0,2.4210814E1,3.675172E1,4.392605E0,6.1476994E0,3.3263756E1,3.4684505E0,3.584163E0,2.3054543E0,2.095634E0,4.413665E0,4.770755E0,1.5031745E0,2.684475E0],"tree_param":{"num_deleted":"0","num_feature":"9","num_nodes":"37","size_leaf_vector":"1"}},{"base_weights":[6.6218436E-2,-5.1432407E-1,1.1286626E-1,-7.762322E-1,-7.18758E-2,1.3010783E-1,-4.4779517E-2,-5.4020595E-2,4.6077717E-2,4.7598565E-1,-5.113283E-1,4.5481074E-1,8.610236E-2,-1.655449E-2,2.0727979E-2,3.6201149E-3,3.2417323E-2,-3.749118E-2,-1.9905074E-3,6.6541266E-1,-1.03233896E-1,-3.3714423E-1,1.3761723E-1,1.2617262E-2,4.7443356E-2,-2.091871E-2,3.4400605E-2,-4.360315E-2,-2.694867E-3,4.1662466E-2,5.60968E-3],"categories":[],"categories_nodes":[],"categories_segments":[],"categories_sizes":[],"default_left":[0,0,0,0,0,0,0,0,0,0,0,0,0,0,0,0,0,0,0,0,0,0,0,0,0,0,0,0,0,0,0],"id":39,"left_children":[1,3,5,7,9,11,-1,-1,13,15,17,19,21,-1,-1,-1,-1,-1,-1,23,25,27,29,-1,-1,-1,-1,-1,-1,-1,-1],"loss_changes":[5.409029E0,1.6680484E0,3.3108497E0,2.361596E0,1.8404685E0,2.554244E0,0E0,0E0,6.1739993E-1,1.9447154E-1,4.3830526E-1,2.5870957E0,3.5583224E0,0E0,0E0,0E0,0E0,0E0,0E0,1.5978289E0,1.9677233E0,2.6449864E0,2.458611E0,0E0,0E0,0E0,0E0,0E0,0E0,0E0,0E0],"parents":[2147483647,0,0,1,1,2,2,3,3,4,4,5,5,8,8,9,9,10,10,11,11,12,12,19,19,20,20,21,21,22,22],"right_children":[2,4,6,8,10,12,-1,-1,14,16,18,20,22,-1,-1,-1,-1,-1,-1,24,26,28,30,-1,-1,-1,-1,-1,-1,-1,-1],"split_conditions":[-1.2919497E0,-8.449277E-1,3.1678393E0,1E0,-5.976088E-1,-9.241413E-1,-4.4779517E-2,-5.4020595E-2,-1.4708836E0,-6.9266874E-1,-1.8498345E-1,1E0,-6.441429E-1,-1.655449E-2,2.0727979E-2,3.6201149E-3,3.2417323E-2,-3.749118E-2,-1.9905074E-3,-1.0898207E0,-9.9041307E-1,-7.738075E-1,-1.2763476E0,1.2617262E-2,4.7443356E-2,-2.091871E-2,3.4400605E-2,-4.360315E-2,-2.694867E-3,4.1662466E-2,5.60968E-3],"split_indices":[6,8,7,4,8,6,0,0,6,8,8,2,6,0,0,0,0,0,0,6,6,8,8,0,0,0,0,0,0,0,0],"split_type":[0,0,0,0,0,0,0,0,0,0,0,0,0,0,0,0,0,0,0,0,0,0,0,0,0,0,0,0,0,0,0],"sum_hessian":[1.9659131E2,1.3875981E1,1.8271533E2,8.242447E0,5.6335344E0,1.805003E2,2.2150278E0,5.787664E0,2.4547827E0,2.4704783E0,3.1630564E0,2.0428598E1,1.600717E2,1.263241E0,1.1915416E0,1.1643088E0,1.3061695E0,1.7086058E0,1.4544506E0,1.4691669E1,5.7369285E0,1.6767252E1,1.4330446E2,6.748128E0,7.943542E0,4.4398537E0,1.2970746E0,5.0851016E0,1.168215E1,3.932421E0,1.3937202E2],"tree_param":{"num_deleted":"0","num_feature":"9","num_nodes":"31","size_leaf_vector":"1"}},{"base_weights":[-3.842389E-3,-5.191657E-2,2.6710143E-2,-7.300167E-2,2.0287068E-1,-2.7026272E-1,6.977141E-2,6.282876E-2,1.5328747E-1,4.3062523E-2,-3.9766207E-1,2.2149976E-1,-2.5416058E-1,-8.824183E-2,3.6427778E-1,8.908558E-3,-2.8652558E-2,-4.3017454E-2,-1.2820232E-2,5.0882142E-2,7.7846246E-3,-3.7570164E-2,1.9218823E-2,1.8670233E-2,-1.4398756E-2,-5.8236247E-4,3.330082E-2],"categories":[],"categories_nodes":[],"categories_segments":[],"categories_sizes":[],"default_left":[0,0,0,0,0,0,0,0,0,0,0,0,0,0,0,0,0,0,0,0,0,0,0,0,0,0,0],"id":40,"left_children":[1,-1,3,5,7,9,11,-1,13,15,17,19,21,23,25,-1,-1,-1,-1,-1,-1,-1,-1,-1,-1,-1,-1],"loss_changes":[6.5080605E0,0E0,3.5300841E0,3.638652E0,3.600373E0,2.1794994E0,3.760039E0,0E0,3.6235676E0,1.4807138E0,2.3028584E0,2.5582538E0,8.068783E0,3.211595E0,4.2966423E0,0E0,0E0,0E0,0E0,0E0,0E0,0E0,0E0,0E0,0E0,0E0,0E0],"parents":[2147483647,0,0,2,2,3,3,4,4,5,5,6,6,8,8,9,9,10,10,11,11,12,12,13,13,14,14],"right_children":[2,-1,4,6,8,10,12,-1,14,16,18,20,22,24,26,-1,-1,-1,-1,-1,-1,-1,-1,-1,-1,-1,-1],